SVM-light Version V6.02
2 # kernel type
3 # kernel parameter -d 
1 # kernel parameter -g 
1 # kernel parameter -s 
1 # kernel parameter -r 
empty# kernel parameter -u 
9947 # highest feature index 
2000 # number of training documents 
1435 # number of support vectors plus 1 
-0.16099178 # threshold b, each following line is a SV (starting with alpha*y)
-0.79098835388303434523749047002639 6:0.013155501 9:0.10063701 27:0.038305663 41:0.12115256 63:0.056871183 142:0.020468477 206:0.12547429 286:0.073713586 406:0.12335037 578:0.40131235 720:0.13097784 960:0.30321017 1607:0.17021149 2205:0.5118736 3177:0.54580438 4507:0.27290219 #
-0.79098835388303434523749047002639 6:0.019937159 27:0.019350741 31:0.025329925 37:0.031444062 42:0.11928168 83:0.03443896 127:0.066094264 142:0.0086166598 162:0.035993244 190:0.056980081 202:0.16503957 286:0.074475288 323:0.056850906 386:0.052928429 408:0.039132856 411:0.049789339 480:0.048880257 500:0.068775021 506:0.037179198 555:0.076585822 594:0.063632675 663:0.062197074 673:0.067195281 782:0.075720288 834:0.066969693 923:0.44677126 1146:0.076086208 1191:0.5542227 1225:0.059279677 1302:0.094811738 1305:0.060443446 1379:0.070145406 1544:0.087077379 1936:0.089480147 2451:0.31556693 2796:0.1145037 2833:0.20080972 6242:0.1545693 6574:0.28386003 7639:0.29435158 #
-0.79098835388303434523749047002639 6:0.030920738 11:0.015438613 15:0.011770805 18:0.18390873 27:0.010003753 31:0.039284434 33:0.019011701 41:0.015819857 63:0.0074261245 75:0.0069629033 83:0.0089019546 98:0.02228589 111:0.021485684 118:0.089988098 142:0.0071272869 172:0.026942596 200:0.033190284 207:0.040629525 226:0.079918697 256:0.023380557 275:0.04620656 285:0.073276632 286:0.07700298 295:0.058341954 308:0.05076988 351:0.024381585 355:0.041354887 367:0.029323906 382:0.030176234 398:0.13361384 408:0.020230513 423:0.026030142 426:0.030928768 433:0.055566143 439:0.037029117 478:0.026942596 480:0.050539255 483:0.033357725 485:0.023775641 502:0.023714704 504:0.036495842 508:0.026656149 513:0.025709525 515:0.024821982 535:0.032579821 550:0.055982187 575:0.035858039 578:0.05240256 585:0.042570043 656:0.033914451 663:0.12861609 671:0.02098156 723:0.03526067 726:0.031661574 761:0.069871157 764:0.031775154 800:0.030297557 806:0.036880661 824:0.076848499 836:0.038959667 922:0.14651586 923:0.51967651 953:0.075083137 963:0.029149331 968:0.047689591 977:0.09447404 1025:0.12563358 1047:0.23230764 1106:0.044023186 1109:0.04753631 1191:0.28651652 1232:0.038898651 1273:0.046126708 1303:0.052660841 1322:0.038599364 1330:0.045372166 1388:0.177807 1410:0.14215642 1503:0.093055815 1538:0.043714084 1664:0.040776823 1781:0.13083978 1782:0.042304482 1956:0.051207699 1963:0.049194388 2067:0.042843301 2205:0.13367885 2453:0.055372752 2456:0.048495788 2529:0.05240256 2674:0.050769169 2837:0.051667634 3395:0.11640354 3448:0.055029925 3887:0.059733797 4453:0.059733797 4511:0.071270041 5176:0.058685299 5549:0.063017204 6197:0.13367885 6239:0.19718733 7292:0.34576732 7579:0.15981539 7699:0.076085471 #
-0.67261912864685502455586174619384 2:0.038812101 6:0.028522387 29:0.03452925 31:0.036237355 41:0.17511357 42:0.11376406 84:0.055798851 105:0.10099518 134:0.068092026 142:0.0024654234 199:0.044441462 214:0.081454784 286:0.21309084 390:0.086847708 441:0.067041896 452:0.13420272 490:0.098390542 508:0.073765732 599:0.089145139 671:0.058062404 981:0.11284196 998:0.10523477 1045:0.049389366 1056:0.093360387 1058:0.10665374 1191:0.47572741 1245:0.09297391 1289:0.12875699 1391:0.12014205 1612:0.13877322 2285:0.12838162 2574:0.17665775 2634:0.17914408 2837:0.14298017 5555:0.20304713 6319:0.59167808 #
-0.37814234005583813313933205790818 8:0.11479637 10:0.096191294 14:0.34711033 16:0.12550452 22:0.12161969 47:0.053978339 52:0.092979059 70:0.1312097 71:0.16329917 75:0.046226259 86:0.35437837 89:0.18157196 111:0.071321033 133:0.16452645 142:0.065061696 172:0.089435071 308:0.08426448 317:0.13594642 331:0.089152396 409:0.058243118 423:0.086406209 491:0.27221075 506:0.063801922 667:0.2196905 934:0.36997804 1107:0.22187129 1150:0.12444369 1993:0.16713561 2201:0.1964958 2462:0.20667887 2782:0.21818565 3024:0.19167215 #
0.50311780783885806656030581507366 6:0.019840326 15:0.033987373 29:0.036028098 31:0.037810348 41:0.045678727 63:0.021442413 74:0.08132381 75:0.020104894 81:0.060399663 142:0.010289771 172:0.077794857 174:0.072717197 179:0.054076742 180:0.076445669 186:0.11258671 187:0.092501171 205:0.15699077 229:0.051950566 255:0.09233211 308:0.073297232 318:0.11974088 408:0.058414184 409:0.050662618 465:0.084354579 480:0.072964273 519:0.1186113 664:0.11214209 679:0.37438783 720:0.098766401 768:0.1239752 922:0.14101808 977:0.13639358 1018:0.10764876 1305:0.18044963 1581:0.14152686 1677:0.15612461 1817:0.14101808 2162:0.17092134 2314:0.16424933 2358:0.50834906 2419:0.15058282 3266:0.33889937 3374:0.1667255 8311:0.21969146 #
0.026285054140791998256165840075482 6:0.01427561 15:0.04890953 26:0.061788775 29:0.051846232 33:0.026332194 75:0.0096439831 88:0.072671533 102:0.090683989 134:0.068160862 142:0.0086377049 150:0.041498523 180:0.036669713 192:0.03842929 206:0.045385882 242:0.03334339 373:0.067939878 455:0.069488607 499:0.035443753 507:0.025443651 587:0.24107388 733:0.16112778 906:0.05568042 997:0.045254659 1064:0.044089608 1083:0.051013809 1374:0.063530155 5679:0.083525963 5978:0.50115573 6967:0.39485082 7817:0.66405785 #
0.062440093565075856230084383469148 6:0.028662087 26:0.12405741 29:0.052047554 31:0.054622263 63:0.030976525 67:0.24319573 88:0.10943058 142:0.018581241 192:0.11573554 255:0.13338646 345:0.10516864 375:0.20318811 377:0.11030072 386:0.11413656 404:0.12034755 586:0.21069449 643:0.11659979 644:0.13655418 726:0.13206963 764:0.1325434 772:0.13278243 827:0.12241051 833:0.18634643 1155:0.16682565 1242:0.1819236 1296:0.14589342 1744:0.19703934 1880:0.20023799 2383:0.22816595 3568:0.48171595 3997:0.25408867 8877:0.30606243 #
0.33331490475775343851339016509883 6:0.0049994551 12:0.067404814 26:0.043278042 27:0.014557214 28:0.03691845 31:0.019055245 41:0.023020666 63:0.010806314 64:0.043361556 67:0.14140004 83:0.012953904 85:0.030638082 110:0.048249464 142:0.002592863 153:0.043361556 162:0.027077071 185:0.029113036 232:0.044375546 268:0.24052912 275:0.033619322 287:0.27843425 306:0.039231118 394:0.046575062 427:0.05310785 437:0.044968832 485:0.034597725 505:0.035962205 575:0.052179735 643:0.081352822 681:0.054706413 683:0.060462449 772:0.092643619 780:0.05072163 801:0.060462449 858:0.05015704 876:0.048249464 1045:0.051942341 1047:0.056341395 1128:0.45111281 1159:0.15251216 1215:0.058601439 1242:0.19039483 1373:0.11600114 1410:0.068954177 1431:0.05839821 1509:0.06317614 1688:0.067314304 1782:0.061560441 1872:0.074516185 1880:0.069854014 1969:0.068316035 2021:0.072973251 2024:0.048689637 2026:0.12045988 2160:0.077414833 2275:0.078681976 2301:0.088640086 2395:0.086139068 2410:0.069854014 2694:0.21980481 2949:0.074516185 3793:0.16804899 4055:0.086139068 4107:0.086139068 4130:0.087754771 4474:0.094202086 4923:0.084693775 5076:0.27868399 5644:0.41484159 5686:0.099094808 5975:0.097263083 7600:0.10677139 #
0.41486996408865728369619318982586 6:0.011882003 11:0.026696885 27:0.017298771 28:0.043871295 29:0.021576559 31:0.090575665 63:0.012841464 75:0.012040448 83:0.01539351 96:0.036809079 142:0.0030811764 174:0.087097965 180:0.045781892 185:0.034595888 308:0.043896355 455:0.043378036 457:0.040966179 480:0.043696951 496:0.049818359 574:0.088967226 609:0.042071387 886:0.051171292 987:0.048502486 1010:0.13229401 1154:0.080695346 1331:0.067159817 1497:0.07213039 1649:0.067476347 2240:0.24208604 2369:0.15489203 3708:0.1859652 4234:0.18917455 9162:0.74738824 9274:0.44843295 #
-0.79098835388303434523749047002639 2:0.075340442 6:0.036910985 26:0.079880461 29:0.067026749 30:0.11093305 31:0.1406849 63:0.11967454 75:0.074806377 88:0.14092451 142:0.04785778 176:0.19132581 213:0.19053544 218:0.10468658 234:0.13239306 238:0.36397761 275:0.12410575 312:0.16727737 355:0.11107469 409:0.094252847 655:0.13974486 671:0.11270834 1332:0.22678369 1709:0.23536992 5076:0.68584144 #
-0.79098835388303434523749047002639 6:0.0039642379 17:0.04320316 18:0.04244091 27:0.1154291 67:0.22424181 69:0.040218905 85:0.097175911 87:0.036930952 94:0.023798067 100:0.024496697 138:0.033242177 142:0.045231324 164:0.046305928 168:0.029442275 187:0.073929563 194:0.12563384 214:0.033963442 232:0.35186881 254:0.076517284 261:0.054504812 281:0.045760006 283:0.059434451 286:0.022212625 291:0.063815378 306:0.062215377 318:0.14355047 337:0.030307258 419:0.048225269 506:0.022177761 524:0.04481357 595:0.056352831 638:0.048417792 679:0.19948092 703:0.1139491 729:0.085337885 791:0.052779645 793:0.047577076 826:0.051677216 856:0.029752089 922:0.50717545 1030:0.059348527 1045:0.06178027 1287:0.28414473 1590:0.1221391 1783:0.057409693 1817:0.22541133 1819:0.055027016 1856:0.24683827 1946:0.11041362 2162:0.13660519 2512:0.061384853 2546:0.19987763 3163:0.15168412 3634:0.20677295 6451:0.15715128 #
-0.79098835388303434523749047002639 6:0.012182553 9:0.046597075 12:0.041062612 27:0.017736336 42:0.03644339 47:0.028830493 75:0.012345006 83:0.015782882 84:0.035749417 92:0.040211421 98:0.039512176 110:0.23514628 141:0.11128382 142:0.0063182269 145:0.051115505 172:0.047768366 180:0.046939924 183:0.053587213 186:0.069131605 200:0.11769064 218:0.034552041 239:0.051642548 287:0.16962048 293:0.057653029 296:0.054928575 321:0.24263263 368:0.074248113 370:0.21610457 372:0.06012924 387:0.042998195 415:0.052996274 437:0.054789487 442:0.051834878 465:0.051796235 480:0.08960449 493:0.054379046 506:0.034077391 555:0.21058913 582:0.05137695 586:0.044776864 599:0.057113841 655:0.046123102 695:0.12025848 720:0.060645524 739:0.062225375 780:0.12359725 782:0.069403052 791:0.081098914 800:0.053716607 884:0.1257733 1128:0.3664203 1177:0.16450404 1474:0.093836829 1480:0.088557869 1483:0.085395001 1818:0.098804899 1891:0.17380345 1943:0.073104881 2112:0.098174132 2135:0.085109293 2313:0.22345498 2320:0.10014268 2333:0.2815105 2389:0.097566307 2611:0.07381019 2940:0.099460408 3103:0.087875597 3494:0.10495082 4095:0.10915112 4239:0.12073594 4252:0.11172749 4562:0.13008898 5427:0.26979426 5432:0.13489713 6140:0.12073594 #
0.79098835388303434523749047002639 6:0.013548679 17:0.018457068 26:0.087963626 27:0.009862626 32:0.025391333 33:0.037486989 37:0.016026311 58:0.022721399 63:0.029285444 67:0.038319852 75:0.013729349 78:0.026021922 88:0.025864128 94:0.020333817 100:0.020930748 142:0.011418452 172:0.026562504 176:0.017557185 199:0.12666327 206:0.032306083 221:0.03224371 226:0.026263751 232:0.060129553 312:0.030700715 317:0.020188265 339:0.02634578 345:0.024856811 373:0.024180109 377:0.026069786 387:0.02390996 399:0.031937964 405:0.032212678 506:0.018949378 541:0.03492773 561:0.060031466 578:0.051663294 593:0.032624394 598:0.071593881 612:0.039429564 643:0.027558584 647:0.030595995 755:0.035352174 858:0.033981781 882:0.025436049 960:0.27323815 1103:0.044381328 1113:0.04112402 1143:0.040201563 1228:0.041707676 1274:0.047170434 1281:0.3505972 1303:0.10383587 1424:0.031497419 1459:0.051663294 2024:0.03298761 2205:0.79075789 2441:0.054591585 2548:0.047170434 2771:0.04886489 3129:0.063822642 3251:0.048323352 3277:0.19440553 3945:0.06212819 4649:0.06138429 6485:0.14467689 8473:0.075012103 #
0.26049479900854616287730891599494 6:0.011276026 15:0.038632683 81:0.13730988 159:0.067836083 180:0.086894073 186:0.063987389 205:0.089223944 245:0.13037859 248:0.41152126 413:0.097497284 427:0.11978216 434:0.097572654 467:0.14153863 478:0.08842767 506:0.063083254 507:0.06029233 641:0.26767182 898:0.15972438 1124:0.12536125 1191:0.18807383 1232:0.12766837 1395:0.12040722 3446:0.68481845 3693:0.22827283 #
0.42197796578918933541046953905607 6:0.020557895 27:0.02992983 29:0.074662268 68:0.063102163 80:0.066927247 142:0.0026654808 172:0.08060848 179:0.16809765 183:0.090427704 185:0.059856798 186:0.058329329 205:0.081334345 265:0.097104378 284:0.062422525 423:0.077878542 437:0.092456527 502:0.070951082 535:0.097474262 561:0.091087893 641:0.16266869 768:0.12845904 856:0.077144749 866:0.11495998 1017:0.12112395 1191:0.17144346 1245:0.10051829 1273:0.13800466 1377:0.098038353 1426:0.12199855 3315:0.19368076 3951:0.18042499 4604:0.17144346 7131:0.22763708 8698:0.22763708 9616:0.71721792 #
-0.79098835388303434523749047002639 6:0.01337761 12:0.090181358 13:0.044455115 124:0.23201708 142:0.003469009 201:0.16055231 218:0.075882897 242:0.046868905 257:0.081050649 261:0.091965228 373:0.047749612 383:0.080125101 456:0.14496833 458:0.070421986 473:0.058891129 502:0.046169896 539:0.062142894 612:0.077863432 613:0.12372538 681:0.073192082 1150:0.07298702 1159:0.068015687 1901:0.12796728 1974:0.11985838 2355:0.24243695 2384:0.26025787 3000:0.11241694 3150:0.11985838 3266:0.5712688 4275:0.13875484 4752:0.14812995 5685:0.4667142 5843:0.13540873 7260:0.13540873 #
-0.79098835388303434523749047002639 2:0.039374709 4:0.041720748 6:0.038581118 15:0.033045597 20:0.054408494 26:0.041747428 29:0.035029773 30:0.05797625 63:0.041696507 68:0.059212092 75:0.019547796 83:0.024991529 92:0.063673094 97:0.060185079 114:0.067727216 142:0.02000929 144:0.057343204 229:0.05051104 278:0.08326868 339:0.075022049 386:0.076817788 396:0.097966947 399:0.090946317 408:0.1135911 411:0.21678558 505:0.069380663 515:0.069685735 534:0.073517181 613:0.089206211 640:0.090020582 644:0.18381122 758:0.10104223 796:0.16957028 850:0.088416159 987:0.15748861 1155:0.33683801 1296:0.29457369 1380:0.099342056 1464:0.24659832 1576:0.10691635 1788:0.11876647 2575:0.13432218 3079:0.28387132 3759:0.15857172 4645:0.36348179 5992:0.19525984 7219:0.2136039 7440:0.2136039 8864:0.2136039 #
-0.79098835388303434523749047002639 2:0.096761838 6:0.011851452 41:0.10914322 65:0.16957518 142:0.0092197629 248:0.43252158 283:0.17768472 582:0.099961229 646:0.30820864 647:0.10705309 781:0.12842992 784:0.2327553 5375:0.73755169 #
0.79098835388303434523749047002639 4:0.038321678 6:0.017718919 15:0.030353308 27:0.05159324 28:0.13084526 31:0.033767514 63:0.019149706 64:0.076840363 73:0.28881299 75:0.035910398 86:0.068823807 131:0.11763237 142:0.011486934 158:0.063589178 173:0.06621971 185:0.051590774 202:0.2200155 209:0.055653568 221:0.084336437 239:0.075111523 260:0.11170159 316:0.12069626 383:0.10612734 432:0.083224081 528:0.092695177 565:0.28270042 592:0.087270841 923:0.14889854 933:0.1029562 1132:0.13718566 1138:0.087362744 2025:0.13865937 2767:0.13943115 5408:0.18920799 6075:0.5886035 9637:0.41211504 #
0.73616021517811269792019857050036 6:0.020352207 41:0.046857242 75:0.020623602 81:0.12391596 83:0.026366929 142:0.0052776239 179:0.055471927 187:0.094887711 204:0.12217814 205:0.16104114 245:0.11766078 351:0.072216444 710:0.11727026 739:0.10395388 882:0.076417752 1993:0.44740006 2135:0.14218383 2333:0.6270563 2365:0.14079902 3364:0.38348588 6678:0.22535951 7613:0.21732704 #
0.34321725372960326660987107061374 6:0.010299275 27:0.074972548 29:0.037404958 64:0.089328252 142:0.013353759 162:0.027890459 178:0.041559868 186:0.029222338 187:0.14405434 204:0.18548545 232:0.045708574 274:0.055652831 286:0.028854717 308:0.038049191 322:0.089258902 337:0.039369833 341:0.086053833 387:0.036351182 399:0.048556451 441:0.072625361 459:0.047040332 561:0.045634013 609:0.036467317 730:0.049501933 757:0.097854175 814:0.057166748 876:0.049698863 895:0.10710099 998:0.056999531 1009:0.045896724 1014:0.063150428 1149:0.049404487 1169:0.058033872 1482:0.061009083 1838:0.078932725 1891:0.073467754 1990:0.068561986 1993:0.22640768 2135:0.35976204 2187:0.07195241 2333:0.15866154 4166:0.17447591 4492:0.079740353 5035:0.090390898 5067:0.10997877 5448:0.10682583 5653:0.098520599 5972:0.10424969 6491:0.32047749 7192:0.10682583 7244:0.10682583 7613:0.10997877 7893:0.59886354 7895:0.11977271 8248:0.10997877 #
-0.79098835388303434523749047002639 6:0.023448087 20:0.099202044 29:0.085158885 30:0.070471376 32:0.043943636 48:0.035861734 64:0.050842818 75:0.011880383 83:0.060755476 111:0.036659732 117:0.060519811 141:0.053547744 142:0.016721183 187:0.054660786 204:0.070381641 215:0.037344985 242:0.041075584 248:0.071311966 252:0.0423057 264:0.048256502 337:0.044816129 346:0.048838958 355:0.035280678 373:0.041847426 385:0.12266689 387:0.082759783 430:0.045623995 508:0.090963565 631:0.15736888 655:0.044387188 697:0.062843703 856:0.043995187 882:0.088042051 993:0.06441842 1058:0.065759562 1109:0.081108347 1138:0.11561029 1176:0.066164218 1319:0.061873499 1363:0.066370428 1380:0.060376201 1482:0.13889778 1714:0.090305135 1734:0.081108347 2135:0.24571823 2207:0.25467962 2333:0.36122054 2365:0.24332502 2422:0.093329832 2807:0.15924516 2824:0.085563488 3360:0.082181029 4188:0.097773179 4682:0.53761232 5035:0.10289529 6991:0.11867126 7609:0.25038579 8766:0.12160378 8973:0.12982006 #
-0.62689354343997338858684997831006 6:0.031961013 18:0.021385802 29:0.029019043 31:0.015227284 42:0.047804747 63:0.017270919 73:0.434129 75:0.016193606 83:0.010351626 86:0.031035732 117:0.16498357 127:0.039733086 131:0.26522851 142:0.021755885 172:0.031330161 173:0.029861432 180:0.061573613 187:0.14901122 202:0.24803708 237:0.034332231 254:0.038556747 259:0.048601035 260:0.10074249 263:0.11441126 295:0.033921432 301:0.036211133 311:0.1023846 320:0.037921637 328:0.040532283 329:0.05363838 355:0.024044737 379:0.048795056 408:0.047050048 414:0.11807538 432:0.037529461 453:0.038750768 465:0.033971947 485:0.027647473 502:0.055153225 507:0.042723473 509:0.037083376 528:0.041800406 530:0.032842342 537:0.044681586 565:0.16997635 610:0.051438648 631:0.026812788 655:0.030251071 681:0.043716576 684:0.037390262 688:0.044350386 709:0.034840934 724:0.046747636 768:0.049928278 787:0.045888972 808:0.041697476 873:0.092386976 881:0.045519847 886:0.034410998 897:0.13327013 933:0.046427559 1018:0.043353163 1059:0.0732449 1086:0.10074249 1088:0.051314782 1132:0.061863154 1148:0.072402045 1198:0.047591276 1225:0.035636444 1264:0.066147789 1401:0.075278059 1416:0.048223 1418:0.050715625 1599:0.048410386 1861:0.38862067 1958:0.05808305 2025:0.062527716 2058:0.059810963 2117:0.29693311 2253:0.059288867 2476:0.07327947 2578:0.060359169 2645:0.20303954 2792:0.06123659 2933:0.085322343 3373:0.07327947 3679:0.082876265 4019:0.080877677 4154:0.26542765 #
-0.79098835388303434523749047002639 6:0.012583463 15:0.021556042 29:0.022850344 73:0.27347553 117:0.12991232 131:0.16707823 142:0.019578453 172:0.049340356 180:0.048484653 181:0.053106621 202:0.15624864 218:0.035689101 260:0.15865447 295:0.053421222 301:0.057027161 311:0.16124056 316:0.51428998 360:0.077472799 409:0.032132097 434:0.05444302 457:0.043384638 507:0.033641566 631:0.042226166 724:0.073620588 730:0.060480546 775:0.52086478 1045:0.032684289 1132:0.097425289 1225:0.056122113 1226:0.099586032 1548:0.069239482 1626:0.090425603 2044:0.23710355 3680:0.13437004 3885:0.11274313 5749:0.29267219 6245:0.13933639 #
0.79098835388303434523749047002639 6:0.01768302 27:0.025744356 42:0.10579543 57:0.066008657 64:0.15336937 65:0.12650774 68:0.05427777 81:0.053832199 137:0.072381154 142:0.0022927322 148:0.077719748 229:0.046301804 245:0.10222959 248:0.53778833 314:0.07055483 319:0.080206722 351:0.062745273 415:0.076924279 457:0.060966633 478:0.069335952 574:0.066201344 582:0.07457383 586:0.064993776 647:0.39932275 720:0.088027194 1378:0.10842417 2393:0.13837844 2574:0.16428371 2682:0.13010773 2709:0.13236606 4492:0.13690771 5375:0.55023384 #
0.63453285964554129172654484136729 6:0.020859431 15:0.035733148 29:0.037878696 31:0.079504982 63:0.022543812 75:0.021137591 80:0.067908913 83:0.027024053 142:0.010818309 174:0.076452352 179:0.11370884 229:0.054619029 245:0.12059316 339:0.081123479 345:0.076538675 404:0.087585442 506:0.058348607 561:0.092423946 571:0.082314961 1707:0.47686446 1776:0.1207954 2175:0.16235486 3266:0.71261412 3748:0.19652162 5413:0.22274333 5700:0.21114004 #
0.79098835388303434523749047002639 6:0.013005709 31:0.049570799 48:0.079564236 142:0.0033725698 176:0.067414291 221:0.12380611 238:0.25649747 373:0.092844322 409:0.066420615 420:0.13224967 671:0.079426318 799:0.1312066 1001:0.15244727 1045:0.067562059 9619:0.90747887 #
-0.79098835388303434523749047002639 2:0.065310776 6:0.015998611 48:0.097873732 63:0.034580972 129:0.16497408 142:0.024892038 179:0.17442311 221:0.15229665 409:0.081705473 571:0.12626663 755:0.16697887 799:0.16140015 852:0.3175416 964:0.19164716 1045:0.083109587 1140:0.16249764 2767:0.5035758 7451:0.6342209 #
-0.79098835388303434523749047002639 176:0.25097311 238:0.4774504 420:0.49234527 641:0.38311976 1431:0.56556964 #
-0.24765897026477887155060386703553 4:0.044063829 5:0.057192538 6:0.020373937 11:0.32043794 20:0.11492827 30:0.12246451 51:0.069186695 60:0.077320151 63:0.11009556 75:0.02064562 79:0.069083102 82:0.076409608 83:0.079185233 114:0.071530849 142:0.031699549 144:0.060563657 169:0.14851028 179:0.055531152 187:0.094989017 239:0.086366296 304:0.1542713 339:0.07923536 437:0.0916292 518:0.088839099 609:0.07213933 647:0.46008977 784:0.10003293 804:0.095963642 944:0.11147064 1164:0.10807398 1282:0.14329956 1510:0.15614402 1529:0.15117763 1603:0.59010655 2401:0.13795933 3673:0.17400707 #
0.40055560622925140412675659717934 6:0.016379679 27:0.023846848 31:0.031215284 57:0.061143439 65:0.058591701 75:0.016598102 111:0.051217366 117:0.25365695 118:0.053628188 132:0.049671568 142:0.0042474894 144:0.048690312 187:0.07636667 199:0.038282398 203:0.06208745 204:0.098330297 229:0.042889096 248:0.09963005 264:0.067419231 274:0.08850871 297:0.080006346 327:0.068875767 360:0.10084502 408:0.048225299 411:0.061357792 574:0.061321925 715:0.10105406 781:0.17750068 819:0.082255371 876:0.079039685 946:0.11642102 993:0.089999072 1014:0.10043269 1671:0.12817916 1781:0.10396487 2135:0.1144311 2240:0.22248165 2333:0.12616545 2365:0.11331659 3167:0.12681684 3825:0.13464378 4487:0.30435011 4682:0.60087913 5842:0.15933117 5883:0.17490718 6675:0.18137181 6991:0.16579579 7947:0.17490718 #
0.27997784709167555794451232031861 6:0.026022369 26:0.037543997 29:0.094508171 31:0.033061113 41:0.039941169 59:0.10772339 79:0.05882372 100:0.10720212 111:0.05424596 117:0.089552082 132:0.052608758 142:0.0067479792 187:0.0808824 199:0.081092238 204:0.052072395 218:0.04920293 242:0.12156033 248:0.1055214 274:0.28122729 299:0.071807578 309:0.063835666 337:0.066315107 398:0.067468286 408:0.051076967 462:0.10658885 507:0.046380088 539:0.080587655 574:0.19484408 643:0.070574127 655:0.0656804 658:0.16044857 710:0.099961311 819:0.17423862 851:0.098518431 862:0.083464257 1009:0.077309102 1011:0.10410309 1027:0.18128806 1042:0.098831594 1064:0.080368966 1476:0.11168236 1581:0.12375014 1591:0.10295124 1602:0.11963644 2135:0.12119766 2240:0.11781874 2365:0.12001725 4487:0.16117351 4682:0.63641047 5842:0.16875277 6991:0.17559966 #
0.71912780125272679487835603140411 59:0.20425329 100:0.20326492 242:0.23048939 274:0.35548827 574:0.24629468 658:0.30422503 1891:0.46928293 4682:0.60334593 #
-0.74458657504461800424877537807333 6:0.0092971614 11:0.041778352 17:0.050661281 25:0.069776326 26:0.040240679 46:0.15569772 58:0.062366083 79:0.063048869 100:0.057451077 142:0.057861343 211:0.18492776 234:0.066694491 294:0.088846654 299:0.076965317 424:0.095756598 614:0.11243808 617:0.52135617 767:0.088933274 793:0.11158053 1234:0.31761596 1269:0.094975062 1993:0.13625222 2333:0.14322387 2343:0.16848865 2365:0.38591328 2374:0.14984392 2966:0.48493594 #
-0.79098835388303434523749047002639 6:0.029843872 15:0.081798241 27:0.01737964 29:0.086709701 77:0.045008041 96:0.036981151 142:0.0030955803 145:0.050087519 160:0.054099929 199:0.055800602 205:0.094458379 306:0.046837442 383:0.64349878 408:0.070293419 411:0.089435406 413:0.05160854 414:0.044101559 478:0.046807695 507:0.03191473 513:0.044665463 528:0.062450379 535:0.056601308 658:0.055203352 697:0.063988134 733:0.13473825 881:0.068007283 884:0.06162193 890:0.12536758 1036:0.13494754 1059:0.054714441 1124:0.33178931 1273:0.080136478 1627:0.079687759 2369:0.1556161 2692:0.3898406 2834:0.21165213 3084:0.10582606 3370:0.10111463 3559:0.10948054 4650:0.099553712 5005:0.20568028 6651:0.13218419 #
0.38390644769693371696206440901733 6:0.016503517 15:0.11308508 20:0.093095444 26:0.14286354 28:0.12187014 60:0.12526342 63:0.035672322 75:0.03344718 83:0.042761657 134:0.11819746 142:0.021398012 144:0.19623373 228:0.12481581 229:0.086426713 295:0.14012645 351:0.11712001 408:0.097179808 442:0.14043984 498:0.16957811 608:0.36016673 1140:0.16762596 1336:0.2926065 1354:0.23631142 2775:0.24387607 2837:0.24819197 2988:0.27737015 4785:0.50847727 #
0.028433663778376742914399954997862 2:0.020107126 6:0.024627337 15:0.0084375478 18:0.013182945 26:0.13857208 27:0.035854451 32:0.055384375 37:0.011652365 48:0.015066116 49:0.022245649 63:0.010646389 67:0.055722978 68:0.015118651 72:0.015326172 75:0.059893779 81:0.014994541 83:0.0063810986 88:0.018805217 92:0.032515362 94:0.029568508 96:0.030517062 97:0.015367084 114:0.017292822 134:0.070551962 142:0.0140497 150:0.064431451 158:0.017676385 160:0.022321789 172:0.019312991 174:0.036104873 176:0.063827142 179:0.026849685 185:0.014341095 186:0.013975128 192:0.079554804 193:0.023887308 198:0.021443449 221:0.023443665 226:0.019095775 238:0.048569821 242:0.017256541 252:0.017773334 255:0.045843884 262:0.023048647 284:0.029911634 293:0.02330941 299:0.020387415 308:0.018196432 312:0.066965364 331:0.0385039 346:0.020518064 355:0.044466015 357:0.022797571 373:0.052742418 387:0.017384386 405:0.023421103 409:0.025154537 417:0.028816853 420:0.025042521 423:0.018658927 441:0.017365973 442:0.020957103 455:0.017981572 457:0.016981781 473:0.021682972 505:0.035429996 506:0.01377766 507:0.026336221 513:0.018429101 530:0.020245152 538:0.021579279 546:0.021277413 561:0.043647509 574:0.01843987 592:0.024259362 593:0.023720453 625:0.027379448 641:0.38973802 643:0.020037217 667:0.047440905 683:0.029783828 684:0.023048647 696:0.027180104 733:0.055593397 755:0.02570376 768:0.03077751 772:0.045636285 814:0.027339106 823:0.028060002 882:0.018493971 890:0.025863515 895:0.025609689 933:0.028619546 952:0.04588579 963:0.062684469 987:0.02010582 997:0.11710551 1005:0.025961213 1020:0.031482033 1021:0.052733544 1027:0.02573541 1050:0.029071875 1080:0.024900852 1081:0.027379448 1094:0.025365055 1126:0.026263077 1141:0.032788701 1149:0.023626925 1154:0.033450782 1195:0.033159055 1251:0.032352593 1272:0.40456772 1308:0.028766984 1331:0.027839875 1338:0.09336178 1411:0.031191351 1431:0.57533967 1469:0.19518332 1561:0.032788701 1627:0.032879405 1665:0.026543211 1803:0.037382998 1806:0.033860441 1858:0.031708557 1863:0.029669294 1931:0.064207666 1939:0.033755675 2021:0.035946656 2042:0.0316322 2076:0.030710936 2091:0.032610867 2202:0.034525629 2229:0.035008498 2285:0.033254907 2369:0.032103833 2415:0.035946656 2424:0.034525629 2528:0.028333984 2611:0.029841831 2741:0.038544238 2858:0.33332753 2975:0.035008498 3079:0.036240499 3103:0.035528544 3501:0.042818379 3719:0.041076154 5563:0.051087789 5564:0.051087789 5730:0.041390501 6017:0.047911834 6253:0.051087789 7253:0.051087789 #
0.79098835388303434523749047002639 6:0.021578707 12:0.2182001 20:0.030431079 39:0.43345526 41:0.049681034 42:0.064551435 47:0.02553343 63:0.12826642 75:0.054666143 82:0.080927931 83:0.11182359 84:0.031661104 86:0.083815992 108:0.099877246 110:0.052063726 114:0.037880339 140:0.11436406 142:0.089530766 173:0.040322319 176:0.027962975 181:0.045534845 211:0.053652156 215:0.034367684 218:0.12240265 227:0.038345784 229:0.084753603 239:0.045736697 268:0.31145239 276:0.041907996 283:0.040440265 286:0.030227734 296:0.1459408 309:0.039701164 316:0.36747012 317:0.064306885 345:0.11876682 346:0.044945307 350:0.39371002 355:0.032467954 365:0.057158895 370:0.063796937 389:0.045975719 408:0.063532352 437:0.04852375 455:0.078778125 457:0.074397989 477:0.057680935 507:0.028845057 509:0.050074216 534:0.041118708 537:0.12066837 548:0.1221582 560:0.06426318 609:0.076405145 612:0.062798671 631:0.036205694 655:0.040848456 684:0.050488606 706:0.054919086 780:0.054731321 789:0.055431765 848:0.059624974 891:0.075886644 893:0.16980402 987:0.088084556 1069:0.085889183 1128:0.081129096 1335:0.17396317 1782:0.066426978 2116:0.081503853 2301:0.095647343 #
0.18993055217069007567509686396079 6:0.024013717 15:0.016454633 27:0.013984437 29:0.034885257 53:0.036987633 59:0.029822484 63:0.010381121 64:0.041655425 75:0.0097335754 81:0.058483735 92:0.031705201 94:0.028831774 97:0.089905165 111:0.030035248 142:0.0024908427 208:0.035981871 226:0.037239958 229:0.025151325 255:0.089403257 275:0.064593032 293:0.045457255 327:0.040390614 337:0.036717769 355:0.057810787 373:0.17142759 394:0.13422747 398:0.14942507 478:0.037663568 493:0.085751683 582:0.040508803 609:0.034010779 641:0.34202451 696:0.053005755 749:0.055908058 772:0.0444992 895:0.049943186 952:0.044742491 959:0.053394511 963:0.040748406 964:0.057531998 1215:0.11259134 1272:0.36414224 1338:0.060690373 1431:0.50490397 1469:0.16313151 1665:0.05176371 2024:0.046773866 2237:0.069286615 2248:0.063092977 2694:0.14077082 2858:0.21668151 3501:0.083503015 4991:0.099629745 5993:0.097227141 7874:0.44681796 #
-0.79098835388303434523749047002639 6:0.033503726 12:0.15057057 18:0.059781503 27:0.032518271 29:0.081119336 31:0.042566087 39:0.11216587 42:0.066816285 57:0.083377011 75:0.022633664 108:0.10338154 110:0.10778087 142:0.023168011 180:0.17212182 185:0.065033436 215:0.071147017 283:0.0837183 284:0.067821056 316:0.30429056 350:0.16300949 367:0.0953205 404:0.093784556 423:0.08461377 537:0.12490214 561:0.098965511 668:0.16111347 888:0.16719455 987:0.091175087 1190:0.12085742 1335:0.12004457 1410:0.15403157 1954:0.1581929 2620:0.20239145 2948:0.19800645 3277:0.21365952 4535:0.20484418 6584:0.51949704 7674:0.24732399 8201:0.23850863 #
-0.7595441450314774911589665862266 6:0.015761774 11:0.035414089 12:0.26563382 29:0.028621847 39:0.15830475 58:0.052865606 83:0.020419877 98:0.05112081 108:0.14590704 140:0.055690099 142:0.022479918 225:0.075093493 284:0.04785946 297:0.076988198 350:0.23006266 411:0.059043139 451:0.08950907 537:0.088140018 572:0.085402332 727:0.084375158 893:0.24806054 922:0.11202917 977:0.10835532 1059:0.072242364 1210:0.12623119 1225:0.14059469 1258:0.13461612 1315:0.12020437 1331:0.17817836 1335:0.084712155 1487:0.11851855 1745:0.12868178 2056:0.10273407 2397:0.28910583 2719:0.13578525 2780:0.14849539 3462:0.1412196 3701:0.52358925 5264:0.33661801 #
-0.79098835388303434523749047002639 6:0.029790653 29:0.027048461 31:0.028386503 39:0.1496025 75:0.030187909 108:0.20682946 142:0.028969312 194:0.059007458 231:0.23952761 243:0.070224769 260:0.093901411 316:0.50731373 317:0.044389684 350:0.21741578 457:0.051355362 511:0.096600056 537:0.16658966 634:0.083674438 668:0.21488692 724:0.17429267 745:0.10116 893:0.11721214 977:0.10239887 1132:0.23064898 1225:0.066432998 1335:0.1601108 2217:0.13204668 2220:0.27676943 2347:0.13838471 2359:0.13345656 2620:0.2699419 2948:0.13204668 3754:0.29524207 #
0.73019961054185889004486398334848 6:0.021199752 15:0.024210755 27:0.061728589 42:0.042278539 64:0.061290294 65:0.15166713 73:0.15357755 80:0.046011228 110:0.06819921 117:0.072955772 131:0.18765457 142:0.021989617 158:0.050720729 174:0.051799774 179:0.038521327 185:0.041150425 202:0.17549129 263:0.20237073 272:0.333644 301:0.12810056 329:0.28462684 360:0.087013885 437:0.063562132 500:0.073130451 507:0.037784658 631:0.047426485 733:0.15952004 780:0.07169354 821:0.2480776 873:0.081707083 890:0.074212931 893:0.11121467 987:0.057691768 1073:0.094608173 1128:0.21254492 1229:0.079760022 1548:0.077766605 1609:0.098736607 1635:0.11059908 1867:0.11786417 1932:0.18241264 2059:0.13747852 2097:0.15091825 2128:0.15649623 2129:0.15649623 2130:0.46948868 2287:0.13747852 #
0.79098835388303434523749047002639 6:0.03196948 15:0.018255055 18:0.057043914 26:0.023062121 27:0.046543732 29:0.019351155 31:0.040616848 42:0.063756548 57:0.039779454 63:0.011516997 64:0.046213251 65:0.038119312 73:0.11579841 75:0.010798598 80:0.034692746 110:0.051422615 117:0.27504545 131:0.14149268 140:0.03765193 142:0.022107072 145:0.044712476 158:0.038243737 173:0.039825793 174:0.039057344 179:0.058090631 185:0.093083009 202:0.19848225 208:0.039918911 242:0.037335388 263:0.22888315 272:0.2515696 301:0.096588604 317:0.031757507 329:0.28614715 345:0.039101444 360:0.065608993 375:0.037772421 387:0.037611984 437:0.047926232 500:0.055140804 507:0.056979723 508:0.082680747 515:0.038495809 592:0.052486338 684:0.099733785 730:0.051218852 733:0.12027908 761:0.054180738 780:0.054057363 799:0.05375341 804:0.050193343 813:0.074447997 821:0.093526006 856:0.039989144 873:0.061607637 890:0.055957001 893:0.083856538 897:0.088870302 987:0.043499943 1059:0.04884287 1073:0.071335137 1128:0.16026016 1190:0.057661481 1229:0.060139541 1305:0.048460908 1509:0.067330956 1548:0.05863649 1609:0.074447997 1635:0.16678476 1867:0.088870302 2059:0.20731927 2097:0.22758654 2128:0.11799911 2129:0.11799911 2130:0.47199643 2387:0.072372429 3926:0.22106194 #
0.64316835850155462672717021632707 6:0.019224815 15:0.043910637 26:0.055473536 27:0.018659351 33:0.035461292 34:0.051070724 53:0.049352378 63:0.027702937 64:0.055580586 75:0.025974903 80:0.041724894 88:0.048932999 142:0.0066470332 192:0.051752325 205:0.050706808 265:0.060538419 337:0.048992302 351:0.045477387 398:0.099688493 535:0.060769022 804:0.060367431 993:0.14084245 1126:0.068339072 1248:0.082508735 1527:0.083326705 2340:0.088952303 2692:0.52318209 3237:0.10264374 4650:0.21376826 4822:0.11613449 6342:0.13293537 6763:0.13293537 8364:0.14191729 8705:0.70958644 #
-0.79098835388303434523749047002639 6:0.023371298 18:0.041701969 29:0.056586664 42:0.093218483 57:0.058161557 63:0.016839005 68:0.04782524 73:0.16930892 75:0.015788635 83:0.080742009 92:0.051428363 110:0.075185031 117:0.4021441 131:0.20687652 140:0.055050902 142:0.022221899 173:0.058229309 179:0.042467169 202:0.096733667 218:0.044190299 237:0.066947296 239:0.06604819 254:0.075185031 301:0.070611119 351:0.055286124 405:0.074088611 408:0.045873418 437:0.070072964 455:0.056881595 465:0.1324895 500:0.080621392 508:0.060443778 534:0.059379369 592:0.076740302 684:0.14582081 697:0.083517194 719:0.08385206 733:0.26379013 742:0.07995484 780:0.079037294 782:0.088762969 881:0.088762969 884:0.080428824 890:0.16362952 930:0.13641627 1086:0.098223113 1128:0.35147467 1264:0.12898713 1424:0.07244353 1469:0.088204101 2114:0.11155005 2161:0.10343826 2248:0.10234184 2682:0.11464055 2913:0.11464055 4595:0.146791 5178:0.13422675 5752:0.36238715 6146:0.1663772 7554:0.17252655 #
-0.79098835388303434523749047002639 6:0.032573629 15:0.027900048 29:0.088725805 57:0.060796786 63:0.052805878 65:0.11651903 73:0.35396016 75:0.049511991 117:0.1681459 131:0.21624984 142:0.033787265 162:0.044104729 202:0.30334964 246:0.084173374 263:0.23320849 272:0.25632367 323:0.069662899 329:0.10933299 408:0.047951885 455:0.059458829 465:0.27698487 507:0.043542378 508:0.063182414 528:0.08520323 538:0.071355194 610:0.31454763 633:0.084682368 655:0.061661821 761:0.082806937 829:0.06041123 1042:0.092784703 1117:0.097186439 2432:0.1557961 3499:0.16485581 4545:0.16892961 4559:0.31685567 4575:0.32971162 #
-0.79098835388303434523749047002639 6:0.028159948 12:0.03796646 25:0.1268063 27:0.016399004 37:0.053295247 41:0.10373303 63:0.012173535 73:0.12239963 83:0.014592841 84:0.033053882 101:0.054738309 111:0.035221163 113:0.060297783 138:0.047227133 142:0.0043813707 159:0.067763604 176:0.029193072 178:0.045452666 189:0.042145241 208:0.042194534 214:0.048251834 215:0.035879526 218:0.031946789 248:0.20554081 263:0.64514899 301:0.051047374 337:0.043057494 341:0.047057129 366:0.071009092 423:0.042670824 433:0.045544378 454:0.056194488 502:0.077750325 550:0.045885384 576:0.0551324 638:0.068787113 789:0.057870217 796:0.099014044 803:0.070384637 829:0.041780476 904:0.068649754 964:0.067465529 974:0.072339214 981:0.066844836 1045:0.058514122 1115:0.079224914 1198:0.067090131 1199:0.081561908 1213:0.071659848 1227:0.061541334 1344:0.089143582 1366:0.18309553 1454:0.10774875 1482:0.066723637 1491:0.064690366 1567:0.082538217 1587:0.090771727 1598:0.058926653 1708:0.20184208 2001:0.073794708 2084:0.085490629 2106:0.076498106 2184:0.18270987 2308:0.083944023 2756:0.09324953 2808:0.39941955 4078:0.12472578 #
0.79098835388303434523749047002639 6:0.029281948 12:0.15791675 27:0.034104802 29:0.12761559 30:0.14080733 31:0.022321422 33:0.032407355 39:0.23527664 41:0.053933069 42:0.035038091 57:0.043722443 63:0.063292876 75:0.035606902 83:0.060697101 84:0.034370877 86:0.090989523 88:0.044718873 108:0.27106354 142:0.042522117 165:0.056861594 168:0.043495227 186:0.033232901 195:0.081557304 218:0.033219673 228:0.088583536 229:0.030669129 231:0.25113326 239:0.24825574 286:0.065629654 296:0.052810464 316:0.15956828 317:0.034905348 350:0.17096254 351:0.041560862 385:0.061274514 408:0.034484942 427:0.062210828 457:0.040382735 502:0.040424097 507:0.093941435 508:0.045438081 534:0.044637922 537:0.065497994 546:0.050597765 567:0.063550681 576:0.057329085 582:0.098791584 643:0.047648575 655:0.044344541 674:0.07754875 686:0.069257103 709:0.051072739 758:0.061350491 811:0.066515349 829:0.04344517 1248:0.075403057 1254:0.080520242 1407:0.071385019 1511:0.070689291 2001:0.076734968 2151:0.089325428 2241:0.08182738 2270:0.086180031 2726:0.58607543 3711:0.11855724 3972:0.10090379 4741:0.10383348 4885:0.11608021 6331:0.10881732 7863:0.13621069 8288:0.12969533 #
0.6727791510207141723043378078728 6:0.022876255 16:0.25174946 28:0.16892959 29:0.041541051 31:0.087192036 41:0.0526684 60:0.086816579 98:0.29678202 108:0.31764889 176:0.05928883 179:0.062351469 185:0.066606984 194:0.090623714 199:0.21386449 200:0.11049905 231:0.24524449 339:0.088967018 348:0.11363427 386:0.09109655 436:0.40412581 653:0.11684608 795:0.13551044 977:0.15726428 991:0.12150411 1033:0.13701718 1047:0.38670617 1123:0.12991127 1373:0.13269804 2184:0.18553469 2989:0.17620571 3611:0.16902371 #
0.64753205456869133982422681583557 12:0.17375024 31:0.098237887 108:0.35788998 158:0.092498161 174:0.094465993 205:0.10197236 220:0.20676583 231:0.27631307 531:0.29001763 539:0.1197292 800:0.11364684 862:0.12400298 1482:0.45803243 2171:0.1783098 2280:0.17504348 2418:0.45241311 8112:0.28539839 #
-0.60995806106540106927837996408925 6:0.016165789 12:0.1307725 20:0.018238068 27:0.047070902 29:0.0234844 31:0.024646135 37:0.030595217 39:0.19483502 42:0.019343605 48:0.019779293 63:0.041930791 72:0.020120705 75:0.072077982 77:0.024379898 79:0.06577716 83:0.016754633 86:0.27628103 108:0.17957643 120:0.24243112 137:0.079404898 142:0.047789082 143:0.028489014 145:0.027131343 162:0.035021596 169:0.047134455 172:0.025354732 179:0.017624576 189:0.024194332 199:0.015112999 200:0.18740526 215:0.02059737 218:0.073358811 227:0.045963082 229:0.033863232 231:0.10398304 243:0.030485773 256:0.022002621 296:0.087465785 316:0.13214014 317:0.057810966 350:0.14157586 360:0.039811265 369:0.028911533 375:0.045840297 383:0.11618987 385:0.067656085 387:0.022822795 394:0.03012019 408:0.076152898 432:0.030371673 433:0.026145674 442:0.027513174 455:0.023606801 457:0.06688273 478:0.025354732 480:0.047560718 506:0.054263297 507:0.017287528 510:0.029229706 513:0.024194332 531:0.072760254 546:0.027933689 548:0.036606155 586:0.023766886 613:0.029902481 621:0.045025636 622:0.035682935 631:0.043397866 636:0.066133231 640:0.060350925 655:0.024481449 673:0.032690659 679:0.040673222 709:0.028195912 724:0.075663432 774:0.036269233 849:0.080811463 856:0.024265245 867:0.028420512 954:0.044180121 986:0.057823066 998:0.035786692 1017:0.038098536 1058:0.036269233 1067:0.034389425 1102:0.038729955 1117:0.077171415 1127:0.03725918 1129:0.037701253 1190:0.034988746 1254:0.088906206 1264:0.053531785 1271:0.041233696 1302:0.046126131 1366:0.035036568 1380:0.033300079 1445:0.10012867 1483:0.045326382 1683:0.16568002 1752:0.087064601 1868:0.050883796 1946:0.045025636 1948:0.14586779 1950:0.054771639 1980:0.040146068 2418:0.56751192 2557:0.054771639 2589:0.052444156 2753:0.045960311 2928:0.056213379 3075:0.057935774 3529:0.069049284 3643:0.071601368 3952:0.10785225 4813:0.060075171 4871:0.054771639 4952:0.20120919 5007:0.15039665 5128:0.06408482 5652:0.069049284 #
-0.79098835388303434523749047002639 6:0.014909023 12:0.15075743 15:0.02553983 27:0.043411501 28:0.11009561 42:0.04459947 63:0.016112914 74:0.061110824 75:0.015107834 86:0.057909612 108:0.41403931 142:0.007732254 158:0.0535051 172:0.11691798 173:0.055718482 174:0.054643381 185:0.13022828 198:0.064907722 231:0.079915956 256:0.050730214 260:0.093987763 316:0.10155606 345:0.054705083 350:0.10880785 367:0.063625857 404:0.062600628 462:0.091602094 499:0.055524606 565:0.079289772 827:0.063673705 884:0.076960757 916:0.090328999 1069:0.11868402 1273:0.10008392 1315:0.11370102 1755:0.11543053 2152:0.12014563 2528:0.085764863 3277:0.14261645 4882:0.15090975 6460:0.69352233 6529:0.16508727 6530:0.16508727 #
-0.79098835388303434523749047002639 4:0.012903865 6:0.038781613 12:0.48264968 13:0.019826941 15:0.040882863 25:0.044778574 28:0.044058867 29:0.11917845 31:0.034111094 37:0.028229887 39:0.17977224 40:0.018639613 41:0.082419306 42:0.017848141 53:0.02297469 55:0.029962039 58:0.020011544 60:0.090571225 63:0.070930019 68:0.018313784 75:0.054413673 77:0.022495076 79:0.14161442 80:0.097119585 81:0.018163444 83:0.0077296626 86:0.23174691 98:0.019351076 108:0.13807774 110:0.057581414 138:0.025015676 140:0.042161435 142:0.013150987 144:0.03547151 145:0.050067611 154:0.021565063 160:0.027039213 162:0.048471089 165:0.086894609 169:0.065235697 171:0.025794014 172:0.070183635 178:0.16853033 179:0.048786033 183:0.078732967 184:0.035153121 185:0.0173719 186:0.033857185 190:0.051155642 197:0.033264365 199:0.055778425 204:0.017908717 208:0.022349965 209:0.018739946 215:0.038009956 216:0.051909823 219:0.024943558 229:0.015622625 234:0.021400411 242:0.041806981 255:0.027766202 259:0.10887263 260:0.07522542 269:0.031855099 279:0.033776116 280:0.031251479 284:0.018116537 288:0.030984337 295:0.025329472 296:0.053802509 306:0.023409413 317:0.017780524 327:0.025088435 330:0.029669093 337:0.1368424 345:0.021892279 346:0.04970859 351:0.042341582 353:0.033465244 355:0.017954446 377:0.02296059 387:0.042116709 390:0.054501224 398:0.023203667 399:0.028128903 411:0.022349965 415:0.025954911 433:0.048248678 441:0.021036051 442:0.025386117 459:0.054501224 461:0.032643601 471:0.03109776 472:0.027179537 475:0.024173208 485:0.020644644 496:0.025015676 502:0.020591732 506:0.016689392 508:0.046291638 510:0.026969943 515:0.021553192 526:0.035803095 531:0.067135118 534:0.022738224 546:0.025774123 548:0.067552231 549:0.031855099 550:0.024304967 565:0.19038457 571:0.047088929 597:0.026676368 636:0.030510219 674:0.039502755 689:0.037281942 695:0.05889656 702:0.035536882 707:0.044271588 712:0.027394639 719:0.064219169 730:0.028676623 733:0.033671174 739:0.03047486 763:0.034550983 829:0.022130644 856:0.022389287 890:0.031329438 903:0.033214904 908:0.03173076 909:0.026265392 912:0.028370854 953:0.065195493 984:0.034209877 987:0.048709854 989:0.036078259 997:0.028370854 1000:0.036219388 1009:0.079764344 1031:0.073315993 1060:0.13585024 1064:0.027640464 1079:0.10373499 1134:0.10887263 1167:0.038135357 1192:0.037121441 1225:0.026610089 1229:0.033671174 1273:0.040052313 1288:0.039189901 1300:0.054063331 1308:0.034846518 1380:0.030725634 1393:0.034154385 1433:0.057524074 1457:0.039502755 1462:0.036657996 1472:0.030334936 1497:0.036219388 1501:0.048710708 1511:0.036008596 1525:0.04182218 1547:0.040052313 1566:0.046438191 1587:0.048080754 1607:0.03859793 1610:0.16510513 1665:0.032152779 1666:0.043037049 1691:0.04182218 1722:0.042560097 1755:0.046193834 1788:0.036733437 1797:0.051867496 1840:0.052891999 1865:0.035406951 1880:0.041682255 1886:0.051399633 1951:0.0372013 1975:0.042407095 1989:0.048389673 1995:0.03859793 2003:0.046690069 2018:0.094436683 2020:0.049757071 2034:0.040166795 2040:0.040641442 2056:0.038888566 2058:0.044661444 2104:0.050957073 2120:0.044083413 2229:0.084814191 2255:0.051399633 2270:0.13169838 2279:0.051867496 2314:0.049393218 2331:0.057073291 2380:0.046193834 2456:0.042109415 2565:0.048080754 2590:0.054063331 2625:0.047218341 2658:0.049044851 2666:0.040282901 2678:0.057073291 2858:0.044863559 2862:0.10107443 3118:0.044083413 3221:0.056210879 3421:0.053456731 3513:0.048710708 3722:0.050537217 3773:0.052891999 3853:0.058037389 4137:0.054063331 4209:0.060392171 4221:0.052363731 4234:0.047495838 4265:0.054063331 4413:0.059130389 4429:0.056210879 4468:0.059130389 4473:0.054063331 4547:0.063711047 4650:0.049757071 4686:0.057073291 5148:0.055430729 5673:0.063711047 5680:0.066065826 6021:0.059130389 6097:0.066065826 6110:0.063711047 6328:0.059130389 6563:0.066065826 6983:0.063711047 7770:0.061884537 #
0.79098835388303434523749047002639 6:0.02686362 15:0.023009297 26:0.087204866 27:0.019555105 29:0.024390858 31:0.025597434 57:0.050139386 60:0.050974417 63:0.029032832 73:0.14595628 83:0.034802668 117:0.20800604 131:0.089171112 134:0.048099015 142:0.024381448 162:0.072746739 166:0.050110251 174:0.049229212 185:0.03910834 229:0.035170298 262:0.06285394 313:0.076157451 323:0.057451311 331:0.0525003 345:0.049284801 346:0.055953015 387:0.047407433 391:0.069501355 408:0.039546136 480:0.098792963 506:0.037571847 512:0.22943333 592:0.13231117 733:0.075801931 757:0.063808315 886:0.11569145 890:0.070530117 1122:0.08202567 1135:0.091220692 1365:0.081220858 2040:0.45746845 2756:0.11119605 2808:0.59536326 3846:0.13595735 4232:0.14342894 5118:0.13931702 5424:0.27863404 8430:0.14342894 #
0.61344420568466206944435725745279 6:0.049307596 26:0.16006266 27:0.035892975 28:0.091027923 31:0.04698354 33:0.068213046 42:0.14750078 60:0.093562447 63:0.026644569 73:0.2678996 75:0.04996511 83:0.031939775 88:0.18825422 94:0.074000694 102:0.11745758 117:0.12726353 131:0.32734331 134:0.26485413 142:0.031965446 176:0.063895725 185:0.14356503 275:0.082893431 286:0.069070727 306:0.09673015 314:0.098368071 355:0.1483793 423:0.093394868 431:0.27490368 441:0.08692316 500:0.12756824 508:0.09564095 561:0.10923602 587:0.15612432 593:0.1187297 658:0.11400768 782:0.14045076 952:0.22967546 1126:0.13145648 1154:0.16743362 1159:0.12534714 1917:0.15338968 2941:0.17716381 3557:0.20717487 4530:0.20265846 8428:0.26326072 #
0.40847863910505310958143354582717 6:0.026357772 27:0.025582504 29:0.063817523 63:0.018990759 64:0.076202571 73:0.28641579 75:0.035612334 81:0.10698753 86:0.068252549 88:0.067088544 117:0.090706326 131:0.233312 142:0.020504862 158:0.063061371 173:0.065670073 180:0.067705125 185:0.05116256 204:0.052743558 255:0.081775159 312:0.079634085 322:0.076143414 329:0.1179594 360:0.10818486 405:0.16711187 432:0.082533307 465:0.074709758 507:0.046977881 565:0.28035393 592:0.43273237 688:0.097533606 731:0.10124972 784:0.086275101 873:0.10158688 960:0.10124972 1033:0.10524646 1036:0.099320129 1046:0.098709792 1064:0.08140485 1069:0.13988157 1132:0.13604699 1133:0.40980411 1134:0.10688146 1229:0.099166088 1264:0.14546959 1418:0.11153179 1752:0.11829656 2335:0.12983151 2397:0.1611533 2491:0.13534819 2840:0.17092784 #
-0.79098835388303434523749047002639 4:0.048024472 6:0.033307847 20:0.062629253 29:0.12096761 31:0.042317227 83:0.02876758 88:0.1695572 142:0.0028790701 205:0.0878518 228:0.16793777 252:0.080126606 382:0.097517595 391:0.11489842 398:0.08635737 408:0.065376982 430:0.086411431 496:0.093101151 507:0.059365112 508:0.17228416 534:0.084625125 587:0.14061837 631:0.074513808 806:0.11918364 853:0.11748651 950:0.12098095 987:0.090642035 1064:0.10286985 1751:0.15125576 1863:0.13375655 2067:0.13845253 2264:0.15080445 2965:0.16934425 3767:0.17783485 4286:0.22006631 4530:0.18253084 5003:0.19895057 6638:0.63723111 8428:0.23711419 #
-0.25088077799023789093979530662182 6:0.035784896 9:0.13687372 13:0.059458364 17:0.097497962 31:0.034098215 34:0.14259386 41:0.12358228 53:0.27559218 63:0.019337246 75:0.018131042 83:0.046360463 85:0.054825004 98:0.058031313 142:0.011599431 151:0.21195641 172:0.070157133 199:0.041818023 239:0.075847127 248:0.10883152 278:0.077233665 284:0.05432909 309:0.065838143 329:0.48044631 360:0.1101587 381:0.085997388 382:0.078577355 394:0.083343267 402:0.20456675 409:0.045688681 447:0.3775382 506:0.050049271 539:0.08311563 676:0.089457847 687:0.10066466 752:0.13645357 827:0.07641536 1052:0.41137838 1134:0.10883152 1704:0.13579895 2056:0.11662164 2615:0.17404643 2731:0.13058124 #
-0.058819973302276853943659773449326 2:0.25782269 4:0.13659221 6:0.063156582 26:0.41003865 27:0.091948412 31:0.12035954 37:0.29882383 63:0.068256423 75:0.063998774 83:0.32728541 114:0.22173643 120:0.26309195 142:0.10645324 218:0.1791241 228:0.23882605 229:0.16537128 239:0.26772442 339:0.24561943 507:0.16884749 534:0.24069254 609:0.22362265 #
0.79098835388303434523749047002639 6:0.01758761 12:0.19760314 26:0.025374675 27:0.07681635 29:0.042583179 42:0.035074867 57:0.021884168 60:0.022248631 63:0.012671862 64:0.025423642 73:0.031852521 75:0.011881426 108:0.24421324 117:0.030262563 127:0.029152602 142:0.01368217 145:0.024598008 155:0.030444948 172:0.1379237 185:0.1024169 232:0.078054488 243:0.027639225 248:0.035659112 254:0.028289508 259:0.10697734 308:0.086633198 351:0.062406726 374:0.03783302 408:0.069042273 414:0.021658299 437:0.026366016 438:0.032685287 439:0.094779156 462:0.10805952 475:0.023752391 496:0.024580194 530:0.024096787 533:0.036712956 561:0.025975719 568:0.041234002 592:0.057749402 598:0.030978795 667:0.028233264 674:0.23289046 727:0.031383045 728:0.040429045 777:0.040429045 856:0.021999525 882:0.022012446 960:0.03378018 1000:0.035588868 1190:0.031721741 1201:0.037383582 1210:0.28170747 1231:0.046396345 1331:0.033136405 1410:0.040429045 1459:0.044709593 1479:0.36906096 1568:0.043500893 2076:0.073107369 2669:0.10505227 2753:0.041668858 2829:0.058101028 2970:0.095094576 3444:0.059340838 3814:0.049657449 3881:0.05145216 4553:0.60807228 5067:0.062601939 5350:0.059340838 5395:0.062601939 5541:0.064915732 5542:0.25966293 6375:0.059340838 #
0.25384144605114999926342989056138 6:0.035400476 11:0.019884747 12:0.059660569 17:0.024112649 28:0.098030493 29:0.064283818 31:0.016865958 33:0.024486842 37:0.020937063 39:0.044443473 41:0.020375784 42:0.026474612 55:0.044443473 63:0.0095647583 75:0.0089681353 78:0.033995509 79:0.030008622 83:0.01146561 92:0.029211931 96:0.082249954 110:0.042706005 138:0.14842562 140:0.03126958 142:0.011474825 159:0.053241931 172:0.069403477 191:0.11422589 196:0.37033918 199:0.020684397 200:0.042748682 205:0.03501422 284:0.026872732 306:0.034723792 321:0.23501672 353:0.049639866 370:0.156991 375:0.031369645 377:0.034058042 408:0.05211331 409:0.022598935 413:0.038260933 434:0.038290512 455:0.032309435 475:0.03585675 480:0.032546975 490:0.045793924 499:0.032959864 507:0.023660567 508:0.034332797 530:0.036376651 531:0.049791638 550:0.03605219 576:0.043317582 593:0.042621098 695:0.043681402 709:0.038590316 733:0.14983599 739:0.09040831 764:0.040926013 768:0.055301279 791:0.058915 845:0.11985476 882:0.066460229 884:0.045684543 886:0.038114116 903:0.049268536 1013:0.054829702 1031:0.21750304 1046:0.44743964 1064:0.040999822 1140:0.044945262 1202:0.1096594 1223:0.05437576 1232:0.050100993 1245:0.04327286 1335:0.047565248 1353:0.063597545 1393:0.050662089 1411:0.056044869 1509:0.055917732 1598:0.046298727 1649:0.050258677 1858:0.056974187 1886:0.15248483 1926:0.091794945 2024:0.086191215 2132:0.40582696 2689:0.25826511 2757:0.084658302 2758:0.084658302 3390:0.089581281 3395:0.074963175 3552:0.077672482 #
0.57731129709002582117705060227308 63:0.060142249 75:0.05639074 111:0.17400695 142:0.0072152549 144:0.16542149 183:0.24478096 209:0.1747876 610:0.358248 2886:0.51700276 2999:0.46408451 3676:0.48376843 #
-0.79098835388303434523749047002639 6:0.022237103 15:0.038093161 26:0.24062078 27:0.016187279 28:0.041052442 29:0.12114123 41:0.025598435 42:0.033260494 63:0.084114552 75:0.056334082 83:0.043213304 97:0.034689035 114:0.039036121 137:0.045511097 142:0.044689637 144:0.033051059 159:0.03344436 168:0.041288573 171:0.048067842 174:0.040750843 176:0.028816164 192:0.044895947 198:0.048405576 199:0.0519723 218:0.031534329 228:0.16817881 229:0.029113185 234:0.039880242 238:0.10963956 256:0.037832558 265:0.10503605 286:0.031150024 298:0.11022288 346:0.04631665 386:0.044275675 402:0.042373296 405:0.052869853 433:0.04495636 436:0.049104337 442:0.047307719 448:0.050345156 465:0.047272451 472:0.050649803 507:0.02972516 534:0.042373296 597:0.049712133 608:0.060661804 655:0.042094797 658:0.051416025 667:0.053545594 696:0.06135527 772:0.10301751 774:0.062363382 840:0.21075112 850:0.05096066 869:0.074428171 1025:0.067763425 1201:0.070899561 1207:0.063341513 1260:0.074220635 1321:0.064495265 1359:0.061714195 1433:0.053598836 1489:0.065163411 1613:0.063751034 1731:0.069029428 1831:0.15057552 2024:0.054141726 2066:0.074428171 2264:0.30204177 2306:0.078202046 2555:0.07506828 2686:0.084793657 2907:0.082860231 2929:0.10635763 2965:0.084793657 3191:0.095784605 3222:0.099618062 3676:0.57993889 3944:0.096656479 4530:0.091396406 4683:0.10196942 4917:0.10074848 4976:0.10196942 5051:0.10635763 6231:0.098565675 7989:0.11254244 8226:0.24623092 #
-0.79098835388303434523749047002639 15:0.098820984 111:0.18038158 505:0.20747893 882:0.21660231 1126:0.30759445 2941:0.41454488 4201:0.47096896 6788:0.61600268 #
-0.79098835388303434523749047002639 6:0.023571437 12:0.068100065 39:0.033820257 42:0.040292896 55:0.13528103 58:0.022588434 59:0.062728323 63:0.014557034 69:0.034163199 72:0.020955801 75:0.013649006 100:0.020808263 140:0.023795284 142:0.013098037 145:0.028257413 162:0.036475144 165:0.09808404 173:0.025169123 180:0.025949089 191:0.1738455 201:0.080826931 214:0.028849613 275:0.02264406 284:0.020449407 293:0.063742906 367:0.028741041 370:0.039821941 377:0.051834457 391:0.034847911 429:0.03842843 473:0.029647591 508:0.02612631 511:0.087352507 519:0.040261995 555:0.0388056 580:0.030468857 605:0.19582443 664:0.076132104 674:0.49048483 777:0.32510525 844:0.036899175 881:0.038367037 977:0.046298102 1045:0.0174927 1046:0.1134964 1053:0.1512375 1055:0.073487781 1188:0.041463606 1193:0.041045465 1214:0.048956107 1294:0.038245466 1334:0.052142221 1427:0.10222913 1447:0.043785598 1600:0.050189856 1642:0.10428444 1670:0.11318822 1763:0.17731984 1847:0.11709296 1950:0.11408981 2077:0.12513711 2163:0.042551849 2211:0.051874395 2286:0.065510869 2481:0.066744618 2597:0.063449159 2704:0.4137463 2737:0.058018371 3324:0.061025076 3372:0.06442263 4082:0.13102174 4596:0.065510869 5807:0.14383025 6614:0.071915127 7411:0.13633776 8442:0.25417092 #
0.79098835388303434523749047002639 2:0.13461211 4:0.14263263 6:0.0082436893 15:0.028243624 20:0.093004405 26:0.035680961 28:0.060875479 63:0.16036847 75:0.033414472 83:0.064079762 96:0.102152 102:0.078550473 110:0.079559386 120:0.13736324 142:0.038478754 169:0.060090132 176:0.042730656 218:0.09352269 234:0.11827452 255:0.076728299 345:0.060496476 472:0.15021425 473:0.072581001 475:0.066799521 518:0.071892045 592:0.081205145 636:0.084311031 737:0.097141095 850:0.15113617 2712:0.1433291 5059:0.85504949 #
0.18046928719411198249744643362646 6:0.041078601 15:0.070369504 26:0.088899761 29:0.14918947 63:0.022197831 75:0.020813191 81:0.062527545 96:0.06362839 134:0.14710157 142:0.0053261397 176:0.0532321 178:0.33152261 199:0.048004217 204:0.061650645 215:0.065424517 240:0.18490171 256:0.069888085 279:0.11627407 294:0.098140076 373:0.29324928 387:0.072493248 411:0.076939613 457:0.070814379 574:0.076894641 582:0.086619504 643:0.083555609 644:0.097854964 645:0.13066813 693:0.12211096 872:0.11719802 1155:0.11954755 1192:0.12779033 1294:0.23328003 1296:0.10454748 1380:0.1057728 2163:0.12977351 2866:0.14076185 3051:0.15444252 3930:0.17855352 5222:0.18026181 6455:0.20789966 6638:0.3929489 7443:0.19979334 7963:0.21932487 8280:0.22743119 #
0.79098835388303434523749047002639 6:0.031007037 17:0.08448042 27:0.022571264 29:0.056305755 31:0.029545555 37:0.11003178 42:0.13913359 56:0.071565114 57:0.057872832 59:0.048134305 64:0.067232996 75:0.015710257 80:0.050472472 83:0.040170595 109:0.085306846 142:0.0060304324 160:0.14052118 203:0.058766346 216:0.067443065 229:0.040594928 242:0.054317102 276:0.060218748 314:0.061858673 337:0.059263486 409:0.079177015 439:0.083548047 485:0.053644493 507:0.041448254 563:0.11881758 655:0.058696266 671:0.047340263 717:0.078555763 1089:0.5062933 1319:0.081819631 1379:0.081819631 1626:0.11140931 2374:0.49974567 3843:0.50295651 7376:0.16555126 8716:0.17167009 #
-0.68535701146567240549245525471633 6:0.029205004 10:0.061582495 13:0.097051099 15:0.025014745 52:0.11905199 63:0.015781641 67:0.041300386 116:0.1563388 142:0.017039886 144:0.043407463 171:0.063129693 176:0.037845585 212:0.082665533 229:0.038235676 281:0.08427982 344:0.44545352 375:0.051759224 415:0.063523479 474:0.29491931 522:0.30503625 541:0.075288847 574:0.054668561 649:0.097749919 658:0.067527011 678:0.23703909 723:0.074934267 867:0.064180367 987:0.059607595 1045:0.037928537 1059:0.06692896 1073:0.29324976 1089:0.35765183 1149:0.070046589 1202:0.090467796 1433:0.070393793 2009:0.4543789 #
-0.79098835388303434523749047002639 4:0.029767744 6:0.029821586 26:0.029786779 27:0.02671794 29:0.024993734 30:0.068943396 32:0.017196337 33:0.012694073 40:0.028666308 47:0.010857532 48:0.014033669 57:0.017126232 60:0.017411457 63:0.059500895 64:0.079584695 75:0.074385859 77:0.017297858 81:0.013966999 83:0.023775266 109:0.12622373 132:0.01391297 137:0.018779606 142:0.024389233 144:0.013638121 154:0.016582714 159:0.013800411 162:0.024848282 168:0.017037231 173:0.034292366 176:0.023781285 179:0.012504868 181:0.019362696 185:0.040074993 189:0.017166195 190:0.019668372 199:0.010722872 204:0.013771122 209:0.014410306 218:0.026024522 225:0.02185821 227:0.032611411 228:0.052047718 229:0.012013204 286:0.038561046 291:0.018463882 299:0.018990312 308:0.084747359 317:0.013672546 320:0.021774285 337:0.087688833 345:0.03366866 347:0.018844698 355:0.013806286 363:0.021429587 396:0.023299798 402:0.017484829 405:0.021816107 408:0.013507871 414:0.016949471 418:0.023683043 423:0.017380271 442:0.019520959 457:0.015818058 472:0.041800059 478:0.017989514 483:0.022272885 505:0.033002056 506:0.012833508 507:0.024531458 509:0.021292962 513:0.034332391 521:0.022620721 557:0.021589449 560:0.027326509 574:0.017176228 586:0.067451678 598:0.048487112 622:0.025317512 625:0.025503196 631:0.015395678 657:0.023825776 686:0.1627695 689:0.11467358 693:0.027276356 724:0.026842099 767:0.021943267 778:0.043843791 806:0.024625141 814:0.025465619 836:0.026013289 850:0.042056601 882:0.017226622 883:0.026749535 944:0.050203379 966:0.022913529 986:0.020513112 987:0.018728014 1009:0.14311674 1010:0.025541 1058:0.051466998 1081:0.025503196 1089:0.18728341 1102:0.027479414 1175:0.024305569 1190:0.024824975 1248:0.029535638 1335:0.024658009 1363:0.025972549 1424:0.021331698 1426:0.027226599 1504:0.03205207 1545:0.02932464 1649:0.026054293 1665:0.024724266 1707:0.026221037 1746:0.026795646 1781:0.029120484 1844:0.029828446 1858:0.029535638 1865:0.027226599 1939:0.031442475 2571:0.030541763 2642:0.031842243 2736:0.11992049 2804:0.11992049 3264:0.039184052 3333:0.041572645 3540:0.038554102 3785:0.078368105 4606:0.039184052 4662:0.089257091 4663:0.089257091 4859:0.043224029 4985:0.043224029 5056:0.039884131 5295:0.048991371 5302:0.65769911 5324:0.087774381 5355:0.044628546 5621:0.084152907 5702:0.048991371 6414:0.043887191 6823:0.046439283 7548:0.046439283 7549:0.46439281 8254:0.048991371 8273:0.048991371 9042:0.050802112 9754:0.17315109 #
-0.79098835388303434523749047002639 6:0.019299656 17:0.035055332 20:0.054434154 26:0.055689488 27:0.0093659945 29:0.023364196 30:0.096672647 41:0.014811311 63:0.0069526951 67:0.01819513 68:0.01974667 72:0.020017717 75:0.032595024 83:0.025003314 84:0.018878128 92:0.084937491 97:0.020071153 111:0.040231861 114:0.022586385 132:0.039017621 141:0.029382722 142:0.012511704 162:0.017421169 185:0.018731093 199:0.075178221 204:0.096549556 227:0.045727819 232:0.057101741 246:0.033248104 274:0.069524668 277:0.058259636 278:0.027769316 283:0.024112755 284:0.019533992 291:0.025890112 292:0.031718843 299:0.026628273 303:0.08621899 309:0.023672063 317:0.019171687 319:0.058359645 331:0.025145227 342:0.060097266 346:0.026798917 347:0.026424091 386:0.025618004 389:0.027413305 408:0.018940778 436:0.028411878 437:0.086797759 440:0.29044509 442:0.027372349 461:0.035197668 475:0.026064539 483:0.031231107 506:0.017995184 571:0.025386604 583:0.05062335 640:0.03002101 643:0.026170876 644:0.1225986 656:0.031752337 658:0.089248277 662:0.033530876 678:0.034809656 709:0.056103185 712:0.029538019 714:0.03328795 730:0.061840616 732:0.035197668 764:0.029749425 772:0.089409232 774:0.03608359 796:0.028275041 805:0.041931238 819:0.06461259 876:0.031043317 963:0.027291005 984:0.036886491 987:0.026260478 991:0.034169164 1026:0.089011557 1081:0.071521319 1146:0.036826652 1175:0.034081344 1216:0.068875976 1225:0.028692085 1236:0.035449129 1241:0.12033588 1246:0.045247879 1265:0.041315235 1296:0.098237529 1297:0.047532536 1309:0.037971161 1363:0.036418788 1407:0.039208066 1412:0.040375438 1433:0.031012403 1439:0.037903532 1440:0.039856121 1606:0.050912745 1649:0.036533412 1779:0.043821264 1788:0.039607491 1819:0.044649288 1836:0.034302551 1872:0.047943112 1956:0.047943112 2144:0.089887023 2241:0.044943511 2246:0.040739439 2402:0.04436456 2540:0.051842634 2575:0.044795174 2643:0.04676459 2801:0.053257786 2942:0.1769992 3051:0.19349489 3191:0.055421185 3273:0.054060683 3375:0.062578283 3539:0.066726439 3546:0.046582609 3571:0.051211953 3653:0.048826426 3824:0.054060683 4107:0.055421185 4305:0.054943997 4976:0.058999732 5099:0.068695858 5150:0.060608864 5222:0.056460712 5697:0.28515157 5954:0.49231005 6142:0.054491293 7021:0.062578283 7132:0.063756801 7532:0.071234874 7627:0.074813426 8250:0.13739172 8824:0.071234874 9586:0.068695858 9745:0.24279299 9826:0.323724 #
0.65400034264325956900876235522446 2:0.065257221 6:0.015985493 12:0.10776167 15:0.10953549 26:0.069189623 29:0.17416859 33:0.088458516 63:0.06910523 75:0.032397315 140:0.11296111 142:0.033162169 162:0.086577497 174:0.11717755 179:0.087140046 186:0.27213576 228:0.120898 229:0.083713889 363:0.14933185 383:0.19149001 389:0.27247027 539:0.14851454 829:0.11858714 998:0.17693782 1134:0.19446479 1509:0.20200236 1881:0.27793217 5034:0.29702577 5270:0.32361165 7016:0.3316085 7081:0.35401398 #
0.79098835388303434523749047002639 6:0.020620922 15:0.023549713 27:0.020014394 31:0.026198639 60:0.052171648 75:0.0139306 80:0.044754956 86:0.053397175 110:0.066337124 142:0.017824352 165:0.73412257 179:0.18734778 180:0.10593779 192:0.055510581 255:0.063976549 286:0.038514741 291:0.055325132 312:0.062301479 317:0.040968388 331:0.053733371 345:0.050442349 414:0.30472416 441:0.048469499 506:0.26918006 515:0.099322103 719:0.36992103 799:0.069343939 1140:0.069815464 1254:0.094506562 1785:0.10433824 5572:0.12771882 7708:0.13150348 #
0.79098835388303434523749047002639 68:0.19888686 111:0.20260602 232:0.28756204 339:0.25199077 829:0.24033777 1074:0.42340553 2250:0.5403595 2686:0.49414641 #
-0.60275851222862397715829274602584 2:0.11300109 6:0.013840447 31:0.052752376 32:0.10375252 48:0.16934171 68:0.25489831 129:0.14271957 142:0.017945148 176:0.071741104 193:0.13424554 221:0.26350456 238:0.2729601 286:0.077551514 373:0.098803297 409:0.1413673 448:0.12533997 772:0.12823687 895:0.2878505 952:0.12893799 1045:0.14379671 2683:0.19604929 2686:0.63331026 4061:0.25386444 #
-0.79098835388303434523749047002639 6:0.02718094 13:0.025807125 27:0.056531698 29:0.028204536 42:0.023231482 57:0.057979021 58:0.052094817 59:0.024111312 63:0.041965395 65:0.027779674 75:0.039347708 79:0.026332576 83:0.010061076 94:0.023310328 98:0.050375462 117:0.040088199 122:0.041794449 139:0.031766269 142:0.012082995 168:0.02883886 169:0.028304011 172:0.060901571 173:0.02902328 178:0.03133747 186:0.022034578 195:0.054075353 199:0.018150566 200:0.11253595 203:0.029437089 205:0.12289996 215:0.024737243 219:0.032467011 286:0.021757379 290:0.040378787 317:0.02314347 328:0.039394621 351:0.027556308 404:0.032608129 411:0.029091142 413:0.033573981 414:0.028690308 423:0.029419521 427:0.04124796 442:0.033043057 467:0.048739981 477:0.041517701 500:0.040184185 508:0.030127041 514:0.04124796 580:0.035134561 582:0.032751143 588:0.053222559 592:0.038249727 618:0.05559998 655:0.029401984 671:0.023713565 684:0.18170395 688:0.043105558 733:0.13148113 737:0.045755975 739:0.03966666 819:0.038999163 845:0.15775889 881:0.044242196 890:0.12233698 896:0.098358788 903:0.043233156 909:0.034187537 1018:0.042136326 1031:0.047714747 1055:0.042370494 1076:0.10644512 1149:0.037252564 1160:0.049179394 1184:0.051144339 1192:0.048317976 1205:0.16117801 1240:0.065260388 1264:0.064291157 1471:0.044972222 1487:0.058395267 1765:0.056677081 1881:0.13502344 1897:0.051840942 1949:0.14495394 2132:0.21366797 2247:0.063837714 2456:0.054810416 2476:0.21366797 2544:0.078607604 2691:0.064764753 2734:0.064291157 2753:0.055197887 2815:0.058665007 2984:0.060126778 3045:0.069580302 3378:0.063402787 3467:0.056233089 3487:0.080550097 3986:0.073165156 4118:0.072149694 4169:0.080550097 4819:0.24878255 5086:0.072149694 5303:0.075542577 5421:0.073165156 5575:0.085992545 5818:0.090312459 5889:0.080550097 6503:0.54187477 6504:0.18062492 7117:0.090312459 7139:0.29309222 #
-0.79098835388303434523749047002639 6:0.013309483 27:0.019377012 29:0.024168726 31:0.050728627 36:0.050845787 53:0.051250532 142:0.0017256715 158:0.047764715 172:0.15656134 179:0.0362763 205:0.052657053 351:0.047226503 539:0.06182643 671:0.081281483 684:0.062281515 688:0.1477502 733:0.15022318 768:0.083166271 781:0.072115041 890:0.069887787 998:0.14731802 1024:0.51523191 1124:0.073984109 1178:0.10533178 1196:0.083531477 1485:0.082986377 1654:0.093935095 1718:0.09459915 1881:0.11570283 2340:0.092373513 2528:0.076563433 2850:0.46433744 2969:0.38839874 3315:0.12539178 4355:0.12539178 5129:0.2842454 6793:0.1421227 7171:0.1421227 #
0.79098835388303434523749047002639 6:0.014022267 26:0.020230746 29:0.01697538 37:0.022115339 38:0.038081102 60:0.035476822 72:0.029087957 75:0.0094728349 83:0.01211086 114:0.032820515 132:0.028348459 142:0.0024241188 154:0.067576423 162:0.025314886 252:0.033732492 274:0.050513517 275:0.031431366 303:0.041761912 314:0.037299007 327:0.039308641 373:0.033367086 398:0.036355581 415:0.040666237 437:0.084084496 448:0.042328846 465:0.079490796 493:0.041727297 506:0.026148994 513:0.03497709 583:0.14712265 609:0.066199414 643:0.038029179 644:0.13361199 655:0.035392169 720:0.046535827 772:0.086614341 796:0.082173526 869:0.062577195 880:0.16494149 882:0.03510021 1296:0.047583334 1382:0.061243545 1433:0.045064453 1509:0.059064616 1561:0.062230561 1595:0.058541082 1873:0.061893046 2143:0.073561326 2684:0.08053311 2706:0.072759509 2838:0.14058474 2907:0.13933329 2913:0.068781823 2934:0.40633079 3051:0.070292369 3191:0.08053311 3439:0.084706604 4080:0.085733138 4293:0.074866675 4683:0.085733138 5954:0.62595832 6627:0.096960895 6659:0.099822678 8189:0.38784358 8363:0.10351215 #
0.29221861678672067519357824494364 6:0.022065757 29:0.080138527 75:0.011180001 85:0.033806309 100:0.068176806 142:0.0028609862 208:0.082657672 274:0.11923382 275:0.037095834 303:0.049288116 314:0.044020925 341:0.046091668 346:0.091919526 347:0.045316946 355:0.066401571 373:0.039380405 377:0.042457983 389:0.094026864 398:0.042907473 422:0.05030321 437:0.099237949 448:0.049957227 473:0.048569117 475:0.044700317 478:0.04326044 506:0.030861488 513:0.041280556 546:0.047660679 583:0.17363666 643:0.044882681 644:0.052563716 655:0.04177044 663:0.051628176 772:0.051111858 824:0.061695982 880:0.19466674 913:0.057575542 1175:0.058449022 1227:0.060278703 1382:0.072280675 1433:0.10637167 1873:0.073047221 1992:0.21628486 2067:0.068791442 2494:0.16911 2706:0.085872009 2709:0.082586505 2838:0.082960248 2907:0.16444352 2934:0.2877351 2989:0.084981397 3254:0.1900931 4080:0.10118371 4293:0.088358924 5954:0.52769047 6627:0.1144349 6659:0.11781242 8189:0.45773959 #
0.79098835388303434523749047002639 6:0.016720455 11:0.1878404 26:0.072370738 58:0.056081057 59:0.051912565 69:0.08481811 72:0.10405533 75:0.033886842 79:0.11339007 83:0.021661878 98:0.10846028 132:0.050704975 142:0.0043358575 169:0.060939606 172:0.065561697 178:0.067470759 185:0.048683625 299:0.069209032 317:0.049828764 337:0.063915327 345:0.12270339 404:0.21061961 415:0.072736956 455:0.061041936 466:0.077251755 518:0.072908357 532:0.096664779 663:0.078243099 762:0.1113076 772:0.077460609 804:0.078755312 933:0.097154602 1225:0.074573047 1335:0.089864619 1431:0.097655103 1503:0.11322029 1849:0.10337185 2365:0.34702232 3335:0.12252123 4044:0.33849028 5935:0.16570909 7390:0.16924514 9225:0.63103861 #
-0.59938419853424829142340968246572 6:0.0092879999 72:0.057801411 83:0.024065794 85:0.056919504 100:0.11478892 142:0.012042568 196:0.4318473 201:0.22294115 215:0.11834149 219:0.077660121 275:0.062458053 287:0.17242527 338:0.24339718 355:0.11179996 377:0.071486279 379:0.11344032 398:0.14448617 514:0.098663889 515:0.13420889 521:0.18317711 523:0.10886989 594:0.088932469 664:0.10499582 762:0.12365991 778:0.088759102 865:0.13783668 869:0.12434872 880:0.10925312 989:0.22465456 1026:0.128511 1151:0.14876944 1179:0.11582379 1291:0.14098692 1322:0.20870121 1386:0.13299349 1543:0.13021059 1555:0.13905045 1843:0.32297206 1857:0.17769393 3022:0.1561009 3311:0.19267343 #
-0.64041097743749508808264181425329 6:0.0063219713 10:0.053322751 14:0.19241738 26:0.027363235 27:0.018408066 34:0.20153181 80:0.041162983 91:0.050515369 98:0.041008621 111:0.039536148 119:0.06614583 142:0.0032787586 151:0.099854596 153:0.10966416 159:0.038032703 162:0.034239825 175:0.061196558 183:0.16685016 226:0.098039784 247:0.093031332 291:0.050884809 323:0.054081399 325:0.056768961 336:0.11559948 372:0.062406518 377:0.048657868 402:0.04818663 404:0.053089909 423:0.095796958 478:0.099154994 541:0.06519074 561:0.056022767 576:0.061886739 580:0.057203244 609:0.044769239 655:0.095739849 713:0.063216612 790:0.095513605 828:0.19192837 880:0.22309275 882:0.047475033 996:0.070388719 1025:0.077060118 1139:0.21088943 1168:0.082204536 1184:0.083269067 1319:0.066728257 1409:0.083050869 1418:0.08025346 2198:0.096426778 2740:0.09155415 2896:0.10625166 2901:0.22193745 3364:0.35736468 3475:0.10254694 3668:0.12530857 3949:0.54006338 4372:0.14000608 5931:0.14703941 #
-0.79098835388303434523749047002639 6:0.0055299178 41:0.025463251 50:0.052489832 59:0.034337848 72:0.10324194 98:0.071741633 117:0.1141823 132:0.067078158 140:0.039077029 142:0.007169941 144:0.032876518 196:0.20569165 199:0.02584892 218:0.031367797 224:0.05259065 242:0.038748506 243:0.052142151 295:0.046952885 331:0.04322907 355:0.033281904 360:0.47664577 379:0.27016178 387:0.039035574 398:0.04301231 411:0.082859628 424:0.056955677 433:0.044718947 448:0.050079286 465:0.047022805 478:0.043366138 514:0.058742806 589:0.26412708 640:0.051611401 644:0.052692141 645:0.070361108 657:0.057435226 658:0.102289 692:0.077265806 722:0.071028166 819:0.055540208 844:0.060596466 865:0.08206562 888:0.082788281 909:0.048687786 1003:0.11688468 1019:0.079476707 1101:0.071199618 1114:0.067676522 1296:0.056295872 1581:0.078893051 1678:0.093680128 1714:0.08518903 1841:0.21159191 1965:0.10275116 2070:0.10143093 2095:0.08206562 2100:0.10758309 2177:0.22389622 2256:0.083941221 2319:0.090294354 2352:0.20043287 2417:0.094458409 2568:0.10419731 2609:0.22389622 2640:0.076513268 2774:0.089126617 2792:0.08476159 2919:0.1147145 3078:0.10758309 3841:0.12246529 3981:0.099091992 4219:0.10419731 4417:0.11194811 4781:0.10021643 5012:0.12861745 6475:0.12246529 #
0.53522306545549103162784376763739 60:0.18034519 67:0.13440447 153:0.20608151 198:0.20688738 203:0.18012966 2264:0.32273468 2691:0.39630461 2798:0.40586236 2833:0.3589794 6735:0.52620041 #
0.5095683849811606380697526219592 4:0.029032573 6:0.013423885 15:0.045991443 26:0.058102276 28:0.049564306 29:0.024376467 30:0.040344428 60:0.050944343 63:0.043523557 67:0.037966896 68:0.041204423 75:0.068014458 80:0.043702126 114:0.047129914 142:0.01914555 180:0.051722836 229:0.035149548 279:0.15198664 363:0.12540206 475:0.054387614 507:0.035888411 535:0.063648701 631:0.045046356 733:0.45454326 890:0.35244253 963:0.056946822 993:0.073758297 1007:0.077477321 1036:0.075874887 1936:0.27111539 2375:0.10448189 2679:0.096464925 4944:0.13303824 9200:0.67549914 #
0.66992533649859486999389446282294 6:0.024318179 7:0.021571852 15:0.023804652 16:0.11469326 20:0.019596789 26:0.060146164 27:0.010115529 28:0.05130785 29:0.012616984 40:0.04341276 41:0.01599662 63:0.052563701 75:0.070407033 81:0.063455604 83:0.0090014199 96:0.021524264 100:0.021467468 114:0.024393912 134:0.049761638 142:0.023422502 144:0.02065381 159:0.020899586 166:0.025921198 171:0.030037891 174:0.025465451 176:0.054022193 180:0.053542309 183:0.15281144 189:0.025996789 192:0.028055755 204:0.041710462 215:0.022131858 218:0.059117991 219:0.02904751 228:0.052547988 229:0.054579023 238:0.10277165 240:0.031274348 255:0.097003683 262:0.065026589 265:0.06563767 298:0.10331844 313:0.039394982 317:0.062117837 320:0.065950722 322:0.030107724 327:0.029216224 346:0.028943561 363:0.032453343 386:0.055336285 388:0.036125999 402:0.079438001 408:0.040913116 422:0.031678885 455:0.025365489 457:0.023955144 472:0.031651374 473:0.030586824 478:0.054487277 496:0.029131494 507:0.037150871 508:0.053907979 550:0.02830385 557:0.032695442 574:0.026011979 580:0.031434108 586:0.17876251 597:0.062130835 608:0.075815871 610:0.13418788 643:0.02826526 655:0.052610595 658:0.032130189 731:0.040034961 737:0.040936846 767:0.066462539 796:0.030537816 856:0.026072985 930:0.030416386 1000:0.042178549 1017:0.040936846 1314:0.040509965 1358:0.046510622 1359:0.11569674 1380:0.10734273 1544:0.091038771 1634:0.18120369 1711:0.050507035 1880:0.048540216 1917:0.043229014 1979:0.051336434 2017:0.052244939 2107:0.044515077 2886:0.06455072 3416:0.054987151 3666:0.099488117 3676:0.72481477 3944:0.060401231 5119:0.066463538 6231:0.18478289 6524:0.14838679 7126:0.076935612 7127:0.076935612 7247:0.068859085 7703:0.20275876 8226:0.076935612 #
-0.79098835388303434523749047002639 2:0.092194803 3:0.11513091 4:0.19537598 5:0.12679389 7:0.1402356 15:0.07737536 21:0.13662136 27:0.065759651 47:0.1068926 54:0.16910025 60:0.1714161 64:0.19587819 75:0.04577063 84:0.13254537 142:0.046851207 143:0.1990006 187:0.21058738 199:0.10556687 204:0.13557695 502:0.15588857 631:0.15157072 862:0.21730958 971:0.28163037 1359:0.25070947 5030:0.46849346 5134:0.41963527 #
-0.79098835388303434523749047002639 6:0.014067969 15:0.016066045 17:0.025552651 26:0.081186734 31:0.017873188 41:0.021592621 63:0.060815781 75:0.047518548 83:0.012150332 94:0.02815089 100:0.028977303 107:0.044856366 134:0.1343389 142:0.024320196 144:0.083637021 174:0.034373876 176:0.12153409 179:0.051124834 180:0.036136348 185:0.08192119 199:0.021919664 206:0.044725738 229:0.098229438 291:0.037743814 317:0.027949382 320:0.044510931 345:0.13765076 357:0.04340915 385:0.14719103 409:0.047897078 423:0.035528701 436:0.041420162 475:0.15199241 480:0.034490671 507:0.025073569 546:0.0405146 558:0.052056745 561:0.041554894 574:0.035111595 593:0.045166422 609:0.033207588 755:0.04894286 852:0.32575908 1056:0.046047725 1059:0.042985994 1122:0.057273723 1140:0.28577629 1149:0.044988334 1225:0.041828662 1466:0.11454745 1597:0.065740697 1805:0.067910306 2047:0.064474098 2223:0.11905602 2280:0.063694067 3241:0.078812189 3263:0.078213632 3589:0.22266893 4189:0.072996654 4422:0.080099925 4621:0.27368864 6293:0.092947647 6391:0.26914221 6419:0.43566057 6992:0.3797242 7721:0.10014802 8974:0.10384953 #
-0.79098835388303434523749047002639 6:0.0064625335 15:0.044282448 26:0.027971627 27:0.018817347 28:0.047722545 40:0.040379152 69:0.26226076 83:0.016744833 92:0.042662267 134:0.046284381 142:0.0067033162 159:0.077756636 172:0.1013596 174:0.047371939 199:0.030208318 202:0.080245167 261:0.35541677 337:0.049407139 365:0.068473294 436:0.05708269 437:0.058128852 593:0.062245551 696:0.071324125 784:0.063460112 867:0.056807771 1005:0.068125591 1013:0.08007548 1305:0.058777351 1446:0.067450009 1936:0.17402734 1941:0.11853717 2707:0.10228949 3448:0.10351288 3557:0.43445623 4177:0.11580377 5455:0.14311896 5682:0.13406099 6666:0.14311896 7050:0.39248419 8170:0.48779872 #
0.79098835388303434523749047002639 6:0.034169178 13:0.064884312 15:0.016723813 20:0.027535213 29:0.053183913 34:0.038901612 37:0.046191614 63:0.010550946 75:0.0098928064 81:0.059440468 84:0.085944563 92:0.032223865 117:0.10078982 142:0.0037973854 168:0.072506703 179:0.026608981 181:0.041201685 186:0.027699685 189:0.036527775 199:0.02281709 214:0.12546128 228:0.073834546 229:0.051125553 252:0.035227999 266:0.049636036 283:0.07318382 286:0.027351219 326:0.056920063 347:0.040099438 355:0.029378256 367:0.041663043 379:0.0596186 383:0.11694632 408:0.028743261 413:0.042205878 447:0.068665162 490:0.05051557 502:0.033693559 515:0.035266764 521:0.048134401 535:0.13886701 576:0.047783896 607:0.047883108 613:0.045145743 626:0.046069793 631:0.032760307 647:0.088184886 664:0.055180591 671:0.029810339 703:0.070154853 780:0.049523011 781:0.10579403 784:0.09586598 787:0.056067899 813:0.06820327 886:0.042043924 918:0.056439962 946:0.069389306 993:0.26820642 1005:0.051456947 1021:0.052260794 1023:0.068902217 1047:0.055009972 1094:0.050275322 1127:0.056252636 1164:0.051786039 1265:0.062697247 1363:0.055266723 1366:0.052897014 1375:0.061271068 1378:0.11971986 1427:0.074095726 1734:0.067538999 1836:0.052055266 1844:0.063471645 1887:0.084103487 2282:0.070690662 2419:0.22228718 2457:0.080250442 2499:0.073078014 3001:0.087469451 3042:0.077261783 3115:0.078672923 3255:0.25704303 3499:0.098817676 3612:0.0865454 3718:0.078185834 3776:0.083379343 3972:0.084103487 4315:0.080820456 4911:0.082692355 5688:0.10810129 5710:0.08846201 6199:0.094964623 6762:0.10125959 7355:0.096753068 7602:0.41699296 7608:0.41699296 7813:0.22706373 #
0.79098835388303434523749047002639 6:0.011157289 11:0.025068576 17:0.030398663 29:0.02026055 37:0.079185665 53:0.08592625 58:0.074843965 64:0.048385017 67:0.063112527 72:0.034717221 91:0.13372757 111:0.034887556 132:0.06766922 160:0.2528193 185:0.032485798 199:0.052153379 218:0.031644199 232:0.099032953 252:0.040260591 280:0.11688177 323:0.0477226 330:0.11096358 377:0.042936757 389:0.04754357 415:0.048536196 437:0.050178498 448:0.050520562 505:0.080256894 510:0.050434325 513:0.0834921 534:0.042520925 629:0.068135582 636:0.05705471 740:0.079879791 762:0.14854753 839:0.088818155 853:0.059032526 903:0.062112529 930:0.048843108 1045:0.028979944 1048:0.07577353 1083:0.059805762 1088:0.14330807 1094:0.17237262 1216:0.11945331 1322:0.12535207 1340:0.14979723 1431:0.065163672 1464:0.071313873 1525:0.078208297 1579:0.070024118 1625:0.075329825 1645:0.063766301 1791:0.078208297 1990:0.2228213 2041:0.087797321 2134:0.30400121 2202:0.078208297 2841:0.38447332 2861:0.095290735 3005:0.36946517 3270:0.21706213 3813:0.096993238 4450:0.21345636 4481:0.10511545 4482:0.10511545 4483:0.10511545 4505:0.10853107 5811:0.10232469 #
0.79098835388303434523749047002639 6:0.011008536 11:0.19787478 20:0.041399032 23:0.026395623 40:0.022927815 68:0.022527026 75:0.0074368888 83:0.0095079364 85:0.022487812 91:0.058642063 92:0.048448395 98:0.071408868 132:0.044511348 142:0.0076124626 162:0.019874092 172:0.086329974 180:0.028277587 218:0.020814868 237:0.03153405 274:0.039656911 284:0.0222844 293:0.034731384 304:0.027785517 346:0.030572237 377:0.028242869 399:0.034600198 404:0.030815395 408:0.021607663 411:0.027491765 448:0.033231333 457:0.025303118 465:0.03120313 502:0.025329035 540:0.041481849 575:0.038299002 587:0.0464756 663:0.03434284 695:0.036223106 697:0.039338935 797:0.10845035 804:0.034567665 819:0.036855061 837:0.039819747 852:0.036416363 853:0.038830318 909:0.032307968 953:0.040097132 1003:0.038780842 1005:0.03868261 1064:0.067998774 1093:0.046582147 1129:0.042789493 1190:0.079421796 1239:0.04912781 1471:0.042499732 1477:0.30378273 1892:0.048722316 1939:0.050296482 2067:0.045759775 2311:0.054456644 2523:0.057121694 3523:0.057751179 3716:0.067306966 6176:0.29714361 7370:0.081264831 9260:0.46163091 9262:0.64628327 9389:0.1706945 #
-0.79098835388303434523749047002639 6:0.023482542 11:0.015074678 13:0.022295658 17:0.16451874 29:0.012183432 33:0.037127074 37:0.031744882 53:0.15501206 58:0.045006495 59:0.041661173 63:0.007251068 79:0.090998448 83:0.0086921081 88:0.025615804 91:0.13402569 132:0.061038077 144:0.01994409 146:0.030123504 160:0.091217861 194:0.026578715 199:0.015680894 203:0.025431708 215:0.064114049 218:0.038057692 242:0.023506252 258:0.063623622 262:0.031396054 275:0.045117326 286:0.018796945 293:0.063502513 335:0.044421371 337:0.076940544 342:0.062676325 357:0.031054048 359:0.037350602 372:0.033114981 413:0.02900571 422:0.12236126 426:0.03019968 437:0.030174218 438:0.18703109 448:0.030379916 473:0.029535782 485:0.046430349 493:0.029948175 502:0.092622705 505:0.072392233 507:0.017937135 509:0.031138366 513:0.025103472 515:0.02423685 516:0.18811837 523:0.078643471 534:0.025569433 539:0.031166643 541:0.034592383 550:0.027331257 567:0.036403012 575:0.035012756 580:0.03035395 629:0.04097249 658:0.031026114 714:0.034716491 726:0.030915214 764:0.031026114 780:0.10210308 796:0.029488457 800:0.02958335 810:0.049365528 828:0.050921798 848:0.037077449 853:0.070996962 856:0.025177049 858:0.067311041 876:0.032375533 887:0.042391375 917:0.040809572 1026:0.046415731 1034:0.042295992 1043:0.037518471 1094:0.069102764 1110:0.054775838 1143:0.039815586 1150:0.036605317 1207:0.038222346 1239:0.044912398 1247:0.051945582 1294:0.03810123 1316:0.046565402 1340:0.045039359 1351:0.044541694 1421:0.094059184 1431:0.039185371 1445:0.051945582 1464:0.042883713 1579:0.042108137 1744:0.092246994 1776:0.038853042 1788:0.041307237 1796:0.054414827 1911:0.0454311 1963:0.048034724 1972:0.097542964 1990:0.31264526 2024:0.13068356 2026:0.040414467 2047:0.046123497 2108:0.050449666 2134:0.18280737 2325:0.059477754 2399:0.048771482 2409:0.048034724 2485:0.053732697 2495:0.04978399 2528:0.038595553 2534:0.058325686 2643:0.048771482 2760:0.052795835 2866:0.045980789 2959:0.058325686 3005:0.2221733 3216:0.066492908 3344:0.06958998 3345:0.13917996 3381:0.063209876 3813:0.058325686 3924:0.057799567 4241:0.51571715 4476:0.13582359 4823:0.071643919 5388:0.0742919 5588:0.1485838 5683:0.12641975 7297:0.15604804 #
-0.79098835388303434523749047002639 17:0.21719967 91:0.31849629 111:0.24927299 242:0.2792992 280:0.41756248 327:0.33521578 647:0.3600485 1828:0.5430252 #
-0.024149300543372449745493923956019 6:0.043832384 11:0.19696815 18:0.11731676 27:0.12762938 142:0.034099128 169:0.15975213 194:0.17364089 199:0.20488909 280:0.45918024 341:0.18311702 343:0.23221138 406:0.20549354 436:0.38716558 441:0.30908418 720:0.2182004 8232:0.44367322 #
0.67164174567734713505728905147407 6:0.01178823 15:0.020193771 31:0.022465212 60:0.044736948 63:0.012740119 75:0.011945426 80:0.03837717 97:0.036778383 142:0.013755869 144:0.10512525 179:0.064259946 180:0.090841167 209:0.037025798 275:0.03963555 317:0.035130203 345:0.043254081 408:0.034707088 430:0.04587378 560:0.070212655 643:0.095911033 644:0.11232484 655:0.0446302 853:0.062370796 987:0.048119705 1064:0.054611165 1214:0.085691445 1296:0.12000698 1411:0.074650951 2139:0.088240683 2236:0.084088907 2873:0.4251563 3050:0.091751128 3400:0.089469552 6391:0.45105451 6419:0.6571098 6992:0.11932096 7003:0.1305308 8974:0.1305308 #
0.79098835388303434523749047002639 6:0.017113041 15:0.014657705 17:0.023312721 27:0.012457267 37:0.040484969 85:0.052436788 100:0.026437171 111:0.053510502 132:0.025947748 142:0.0011094152 151:0.067574479 176:0.088704392 185:0.049826685 220:0.068641827 319:0.038810704 387:0.060400296 411:0.032052472 480:0.03146724 493:0.038193587 510:0.038678061 518:0.037310097 643:0.069617294 644:0.040765651 645:0.054435372 796:0.037607297 844:0.04688089 912:0.081374258 1576:0.047423817 1584:0.057439715 1652:0.051249221 1788:0.052680057 1937:0.1474262 1980:0.053123079 3119:0.069396466 3388:0.14876814 3482:0.065254778 3954:0.069396466 4066:0.45997933 5272:0.094746143 5376:0.079494163 6419:0.79494166 6737:0.094746143 #
0.19102500716261006097340668929974 6:0.021943195 176:0.1137412 185:0.12778053 387:0.15489656 3119:0.35593447 4066:0.39320567 6419:0.81545115 #
-0.79098835388303434523749047002639 2:0.12223209 4:0.12951498 5:0.084051818 6:0.029942129 26:0.12959778 27:0.087184303 29:0.054371987 31:0.057061683 63:0.064719856 75:0.060682811 82:0.22458756 142:0.031057721 162:0.08108335 169:0.10912751 187:0.13959862 228:0.11322589 351:0.1062447 472:0.27279866 631:0.10047641 1059:0.13723646 1251:0.19667281 1418:0.19004826 2120:0.22123069 2873:0.43195912 5151:0.25794682 6391:0.57283968 #
-0.79098835388303434523749047002639 6:0.024680756 12:0.033275664 15:0.0169117 29:0.01792714 37:0.023355281 42:0.088597238 63:0.010669482 75:0.010003949 80:0.064279541 96:0.061166514 108:0.045694046 110:0.047638524 142:0.0051200637 174:0.036183186 179:0.026907925 180:0.038038425 185:0.028744403 195:0.13748376 204:0.029632647 229:0.025849964 255:0.045943327 256:0.067184016 269:0.052709013 346:0.041125141 363:0.046112098 375:0.034992822 388:0.051330481 413:0.042680047 502:0.034072094 507:0.026393346 535:0.046809044 557:0.046456091 580:0.044663895 582:0.041634034 592:0.048623968 686:0.058374457 737:0.058166087 795:0.11695971 989:0.059696864 1046:0.055457626 1060:0.67435348 1140:0.05013641 1164:0.05236784 1783:0.21445453 1792:0.05826987 2040:0.067247331 2889:0.14915271 3105:0.077255689 5114:0.09171842 5160:0.54657888 5603:0.21083887 #
-0.79098835388303434523749047002639 6:0.027115842 29:0.032826483 31:0.068900712 63:0.039073896 75:0.036636572 96:0.056001171 142:0.0070315329 162:0.048953176 169:0.065884523 179:0.19708501 180:0.069652371 218:0.051270463 286:0.10129127 357:0.083670616 409:0.046160519 506:0.050566148 609:0.06400723 631:0.060661521 634:0.10154876 636:0.092441 676:0.090381704 767:0.086460106 800:0.2391241 912:0.085959077 1067:0.096139051 1236:0.099611416 1373:0.20972078 1433:0.0871443 1922:0.13246316 2171:0.12506044 2223:0.22947906 2285:0.12205065 2408:0.15311956 2733:0.11752902 3972:0.31146505 6213:0.15715007 8410:0.19303413 8615:0.63067317 8904:0.20016873 #
0.79098835388303434523749047002639 2:0.018672589 6:0.022870306 11:0.061662931 15:0.015671147 26:0.019797798 27:0.026637139 29:0.049836297 31:0.017433872 36:0.034948274 41:0.042123765 63:0.098868251 69:0.1856233 75:0.055620674 81:0.055699039 83:0.011851682 85:0.028031148 92:0.030195562 96:0.028339831 97:0.028541448 142:0.03083914 144:0.027193753 158:0.065661073 172:0.071740441 180:0.035248127 185:0.053271729 218:0.025945818 226:0.035466783 228:0.034593545 261:0.062889352 276:0.035533126 304:0.034634762 310:0.14083366 317:0.027262397 374:0.17710821 402:0.034863904 408:0.08080212 409:0.070079677 530:0.037601531 633:0.047565147 658:0.04230408 730:0.043969091 758:0.047917049 761:0.046511736 764:0.08460816 823:0.052116137 844:0.050122257 850:0.041929416 867:0.040207487 975:0.056675941 987:0.037342753 1005:0.048218034 1122:0.055865955 1138:0.045104619 1359:0.10155442 1941:0.08389841 2078:0.063491888 2341:0.063699335 2376:0.12698378 2679:0.065739013 3206:0.078131102 3557:0.15375003 3887:0.079527028 5682:0.37954354 6283:0.097686425 7348:0.57542479 7693:0.48843214 #
0.57658054960385507481390732209547 6:0.013348278 15:0.045732405 31:0.050876487 102:0.25437969 111:0.083477043 118:0.17481269 220:0.3212463 280:0.4195025 513:0.099887677 795:0.31628096 991:0.14179511 1150:0.14565396 2340:0.37057102 8412:0.57014781 #
0.79098835388303434523749047002639 6:0.015180045 26:0.032851711 31:0.028929101 41:0.13979712 63:0.016405821 77:0.057233199 134:0.054359406 142:0.0019682033 153:0.065830208 162:0.041107595 176:0.078684829 289:0.066035897 386:0.060449131 409:0.038762514 480:0.055825748 502:0.052390609 513:0.11359514 541:0.078266598 633:0.078927785 795:0.17984191 852:0.30129462 885:0.10640626 1005:0.16002232 2153:0.24168299 2730:0.1215723 2733:0.098692991 4623:0.26914141 6653:0.14102988 7374:0.44298565 8423:0.48629135 8874:0.16209713 9658:0.35306472 #
-0.73969542793070452990633611989324 6:0.025954582 13:0.057499755 59:0.053721383 61:0.30476177 96:0.053602871 100:0.053461429 142:0.0044869338 144:0.051435139 149:0.28897783 199:0.0404405 204:0.051936746 220:0.20821196 233:0.10231214 240:0.077883959 253:0.18907227 273:0.37587163 275:0.11635607 279:0.097953498 291:0.06963513 331:0.067631654 419:0.10524651 431:0.09646938 434:0.074862577 480:0.063633271 605:0.12578 631:0.058063634 653:0.088379592 662:0.090186052 663:0.080969363 730:0.083164558 927:0.1111232 930:0.075747333 1005:0.091201141 1159:0.087973796 1280:0.11395252 1319:0.091316655 1447:0.22499146 1602:0.23864958 1787:0.12434088 1999:0.14324437 2073:0.12529054 2078:0.1200906 2749:0.16075365 2860:0.13467456 4273:0.35028449 4432:0.17148298 5243:0.17514224 #
-0.79098835388303434523749047002639 27:0.1166995 97:0.25008488 140:0.28321502 142:0.031178957 153:0.34761268 313:0.45448682 358:0.53071123 501:0.41677365 671:0.2447619 #
-0.79098835388303434523749047002639 6:0.0056637754 10:0.047771189 22:0.060399614 33:0.094024472 52:0.046175905 94:0.03400071 99:0.48307359 106:0.039644904 116:0.12127618 140:0.080045864 142:0.0058747977 162:0.12270013 171:0.097942784 184:0.066740185 192:0.045739874 199:0.052949242 284:0.03439527 289:0.14783059 375:0.040151015 415:0.049276862 558:0.4401198 574:0.042407867 594:0.054230575 658:0.05238251 975:0.070178285 1005:0.17911617 1202:0.070178285 1255:0.089137122 1343:0.09847337 2153:0.2705206 2284:0.084052108 2468:0.084052108 2718:0.55093628 3777:0.11465795 #
0.6895411810173286415448501429637 6:0.022156416 12:0.14936119 15:0.010844269 17:0.017247545 26:0.12329882 27:0.0092163105 41:0.029149201 63:0.068415791 64:0.054905221 67:0.12533039 68:0.019431086 80:0.020608947 88:0.096676826 100:0.019559119 110:0.030547192 114:0.022225415 132:0.019197026 142:0.014774095 153:0.054905221 158:0.022718385 162:0.01714275 173:0.023658192 180:0.024391335 192:0.051123481 199:0.014795349 204:0.03800261 209:0.019883245 232:0.16856746 268:0.030456252 269:0.033798538 286:0.017735427 339:0.024619292 351:0.022462396 355:0.019049823 373:0.022595543 387:0.022343097 409:0.0161648 423:0.023981186 431:0.03529378 433:0.051192269 436:0.027957808 437:0.028470194 441:0.1339166 459:0.028913137 493:0.028256916 506:0.053122774 507:0.016924173 567:0.068694457 591:0.066564918 611:0.040952742 633:0.032914583 673:0.032003555 676:0.031650469 696:0.034932937 712:0.087197855 717:0.03207593 721:0.041912768 749:0.036845673 772:0.029326774 780:0.032112341 789:0.032523312 794:0.036972459 800:0.055825386 819:0.031789985 844:0.034684077 880:0.037231725 953:0.034586493 989:0.26795542 991:0.033623081 1003:0.033451103 1009:0.19747156 1025:0.038581457 1033:0.037915915 1059:0.029014714 1060:0.62459928 1128:0.28560376 1189:0.043120928 1201:0.04036703 1250:0.042740513 1272:0.039997414 1338:0.039997414 1470:0.049012065 1548:0.034832537 1624:0.040088352 1723:0.053196702 2040:0.30184647 2055:0.048760314 2146:0.048760314 2246:0.040088352 2301:0.056118876 2456:0.089356914 2564:0.048277706 2663:0.051341865 2723:0.12378332 2965:0.096555412 3389:0.064076617 3490:0.067597978 3502:0.053620432 3653:0.048046097 3737:0.056118876 3742:0.056718059 3766:0.058812488 3939:0.064076617 4471:0.06273786 4781:0.11472333 5459:0.060555261 5933:0.064076617 6019:0.065660037 6020:0.065660037 6217:0.060555261 6526:0.073617779 #
0.27352845887287952075794805750775 6:0.053359792 17:0.013845881 25:0.019070081 26:0.010997899 27:0.014797229 28:0.056290727 29:0.0092282072 31:0.0096847117 37:0.012022408 42:0.06080864 52:0.041431837 53:0.0195687 59:0.031555802 60:0.05785805 63:0.0054922425 64:0.044076491 72:0.063251533 75:0.0051496513 78:0.019520782 80:0.049632981 91:0.020303261 96:0.031486187 97:0.031710189 118:0.016638437 132:0.03082175 136:0.032181889 142:0.0032945168 144:0.030212868 160:0.23030658 173:0.018992184 174:0.018625725 180:0.019580731 186:0.028837867 194:0.020131759 201:0.030495297 218:0.014413193 229:0.06653288 243:0.023958802 252:0.018337758 283:0.019047735 286:0.014237541 291:0.020451749 293:0.024049643 299:0.042069711 322:0.044042271 327:0.10684542 330:0.025270659 337:0.23311111 341:0.021230411 347:0.062620692 377:0.01955669 387:0.017936459 396:0.025808312 398:0.01976373 404:0.021338027 408:0.014962162 423:0.019251475 442:0.021622634 444:0.10014003 449:0.058088116 471:0.026487527 480:0.01868901 485:0.017584082 489:0.028951099 493:0.022683918 499:0.018926099 502:0.017539015 506:0.056860778 508:0.019714458 510:0.022971658 521:0.025056122 548:0.028768817 555:0.02928203 557:0.023913823 575:0.026520031 576:0.02487367 591:0.026718296 592:0.025029764 603:0.027204096 625:0.028248932 634:0.02854747 641:0.040211488 653:0.025956972 663:0.023780597 671:0.015517624 673:0.025691625 702:0.030268548 706:0.05173479 712:0.070000179 727:0.054408193 731:0.02928203 733:0.028679432 739:0.051913943 744:0.031352572 763:0.17657287 787:0.029185865 792:0.027882978 796:0.02233571 814:0.02820731 819:0.025520176 841:0.039143518 861:0.10177065 862:0.07334847 884:0.052465636 887:0.032108884 890:0.026684858 904:0.030972192 953:0.05553028 965:0.025380455 984:0.029138274 987:0.020744318 991:0.026991738 996:0.028290806 1003:0.026853677 1007:0.029330615 1009:0.24911079 1014:0.062319577 1019:0.03651876 1048:0.034513071 1093:0.032255668 1112:0.030611496 1124:0.14124466 1140:0.051616624 1145:0.066760018 1168:0.066079699 1201:0.064811215 1227:0.05553028 1294:0.028859362 1305:0.046220221 1319:0.026819585 1327:0.033039849 1335:0.054625504 1340:0.068229139 1377:0.024234952 1379:0.05363917 1395:0.027132589 1547:0.10234372 1553:0.035385694 1574:0.077894226 1598:0.026585495 1669:0.038040396 1721:0.0332934 1741:0.038570162 1749:0.039768282 1757:0.041215919 1820:0.064811215 1943:0.030495297 1953:0.044600822 2042:0.032636739 2108:0.038212553 2120:0.037548058 2142:0.033039849 2307:0.035622053 2389:0.040699247 2414:0.040454593 2423:0.032795198 2450:0.041773967 2472:0.43045092 2499:0.038040396 2542:0.038389064 2547:0.040218238 2577:0.03651876 2602:0.038756091 2683:0.035992328 2700:0.081905596 2708:0.039553747 2734:0.042070687 2745:0.42070687 2826:0.043402702 2834:0.045050777 2900:0.042380601 2957:0.040218238 2960:0.039989632 2984:0.039345615 3318:0.040952798 3319:0.045531787 3323:0.092096917 3329:0.046606507 3404:0.049433362 3429:0.045531787 3579:0.097224385 3613:0.041773967 3708:0.039768282 3728:0.043779653 3756:0.047877632 3811:0.046048459 3897:0.040699247 4234:0.040454593 4418:0.046606507 4585:0.039553747 4939:0.045050777 5056:0.17671262 5280:0.049433362 5302:0.045531787 5306:0.045531787 5583:0.047213141 5621:0.046606507 5622:0.091063574 5623:0.045531787 5639:0.045531787 5740:0.045531787 5943:0.054265905 6226:0.051439051 6571:0.05036433 6837:0.05627159 7539:0.16881476 7989:0.051439051 9942:0.05627159 #
0.79098835388303434523749047002639 6:0.025487939 17:0.13888666 26:0.036772944 27:0.049476512 29:0.092567228 58:0.056991696 64:0.29475126 72:0.052872483 75:0.017218545 78:0.065270342 79:0.057615638 80:0.055318166 83:0.022013621 91:0.067886665 92:0.056086019 142:0.0044062627 146:0.1525815 151:0.067096367 185:0.049474146 189:0.063577019 199:0.15885365 242:0.11906381 256:0.05781772 284:0.051594827 286:0.047605116 293:0.080413193 312:0.077006079 327:0.071450382 355:0.1533996 369:0.075972714 372:0.16773391 390:0.077608131 398:0.066082671 400:0.074862435 420:0.086392105 459:0.077608131 592:0.083690353 676:0.084955625 729:0.091446199 866:0.095019229 886:0.073177941 895:0.088348731 952:0.079148784 1009:0.075721376 1026:0.11755241 1055:0.092706583 1116:0.099070035 1164:0.090134211 1190:0.091942206 1371:0.12719314 1383:0.12351859 1497:0.10315067 1564:0.13608336 1858:0.1093887 1975:0.36231869 2160:0.13155732 2953:0.14912879 3008:0.16254136 4288:0.13608336 4305:0.43536818 4785:0.13088156 7739:0.17199333 7905:0.19760354 #
-0.60867250937788563991404089392745 6:0.0284987 27:0.049788829 29:0.020700345 38:0.046437364 40:0.035613071 42:0.034100875 50:0.054101784 52:0.046469118 72:0.39017907 76:0.047419216 83:0.014768387 84:0.033451509 91:0.045543462 92:0.11288011 108:0.052762598 118:0.037322678 135:0.051929552 139:0.046628866 142:0.035472613 166:0.085056417 171:0.098564714 173:0.12780751 188:0.0629967 229:0.029848777 242:0.039938465 246:0.058914695 256:0.03878846 280:0.05970946 283:0.042727116 307:0.10947177 308:0.042113744 314:0.045483656 331:0.044556625 355:0.068607964 369:0.050968193 400:0.40178668 402:0.086887851 407:0.16445422 408:0.033562522 412:0.058091395 418:0.058844406 423:0.043184135 441:0.1205752 448:0.051617209 457:0.039302558 478:0.044697899 505:0.040999513 508:0.044222683 513:0.042652231 548:0.19359916 561:0.050508801 574:0.085354306 716:0.054574933 726:0.052526712 762:0.075886019 767:0.054521646 886:0.24546625 908:0.060625177 953:0.06228165 966:0.05693242 1011:0.068405829 1027:0.059561919 1190:0.061681721 1294:0.12947233 1319:0.060160615 1371:0.085330695 1540:0.074113667 1858:0.07338614 1975:0.16204703 2091:0.075474441 2114:0.081613734 2733:0.074113667 6137:0.50490469 7175:0.12622617 #
-0.79098835388303434523749047002639 6:0.012441702 13:0.13781667 17:0.11299373 29:0.075309731 31:0.015807036 33:0.022949444 34:0.066102766 37:0.019622538 42:0.12406207 48:0.050742563 52:0.067623548 53:0.031939324 58:0.027819971 63:0.0089642387 72:0.051618431 78:0.06372223 79:0.14062271 81:0.050501499 97:0.077634335 100:0.025627507 118:0.054313309 142:0.0010754382 144:0.024656175 146:0.074481249 148:0.036455538 158:0.089300886 160:0.037589807 165:0.040266849 166:0.030944295 185:0.048300695 186:0.047068123 199:0.038771473 206:0.039555412 216:0.2886593 219:0.069352873 229:0.021718511 232:0.073622338 242:0.02905995 252:0.059860453 271:0.13731357 274:0.089639448 275:0.027888479 284:0.025185538 287:0.11548579 306:0.032543674 312:0.037589807 322:0.17971051 323:0.035477575 333:0.16735558 335:0.16474971 337:0.031706292 341:0.034651507 342:0.038742263 367:0.035397533 377:0.031919722 405:0.039441045 409:0.021180071 411:0.031070832 419:0.050451431 426:0.11200439 429:0.047328547 430:0.032277837 444:0.10896329 480:0.030503524 484:0.04583754 489:0.1417588 504:0.044054937 532:0.095904447 561:0.036751118 570:0.048113633 580:0.15010206 598:0.043829598 603:0.044401541 625:0.046106886 628:0.045065772 643:0.033742599 656:0.04093888 684:0.038813829 715:0.051172532 730:0.039866127 774:0.093046494 810:0.061028857 814:0.046038948 881:0.094505869 886:0.035721138 895:0.21563309 900:0.12106806 906:0.097054936 920:0.27240822 930:0.036310576 963:0.035186801 1000:0.050352048 1003:0.043829598 1023:0.058540337 1026:0.057382125 1034:0.10457808 1039:0.12106806 1058:0.046523247 1126:0.044226918 1170:0.11043209 1201:0.10578252 1260:0.055368789 1320:0.17501679 1332:0.0509618 1379:0.043773953 1386:0.059383631 1404:0.11232973 1424:0.038565289 1432:0.049312558 1476:0.053397086 1497:0.050352048 1503:0.056164864 1509:0.052406959 1551:0.044401541 1613:0.047558438 1645:0.047404662 1679:0.059829935 1724:0.063888632 1751:0.056499571 1759:0.062952824 1873:0.054916572 1979:0.061284583 1990:0.055216044 2141:0.13733251 2227:0.054916572 2402:0.057200056 2403:0.062369142 2472:0.070256643 2554:0.062952824 2649:0.068666257 2745:0.068666257 2907:0.061813947 2979:0.12843697 2987:0.070840321 3095:0.065642752 3323:0.075158626 3541:0.078144141 3576:0.066427834 3776:0.070840321 3810:0.074315332 3969:0.062952824 4498:0.082202837 4512:0.068181954 4522:0.082202837 4684:0.066841677 4734:0.088570841 5094:0.079343066 5823:0.076069452 6845:0.088570841 6875:0.088570841 7641:0.091844454 7982:0.088570841 #
